Noun Phrase,0,1,2,3,4,5,6,7,8,9,10,11,12,13,14,15,16,17,18,19,20,21,22,23,24,25,26,27,28,29,30,31,32,33,34,35,36,37,38,39,40,41,42,43,44,45,46,47,48,49,50,51,52,53,54,55,56,57,58,59,60,61,62,63,64,65,66,67,68,69,70,71,72,73,74,75,76,77,78,79,80,81,82,83,84,85,86,87,88,89,90,91,92,93,94,95,96,97,98,99,100,101,102,103,104,105,106,107,108,109,110,111,112,113,114,115,116,117,118,119,120,121,122,123,124,125,126,127,128,129,130,131,132,133,134,135,136,137,138,139,140,141,142,143,144,145,146,147,148,149,150,151,152,153,154,155,156,157,158,159,160,161,162,163,164,165,166,167,168,169,170,171,172,173,174,175,176,177,178,179,180,181,182,183,184,185,186,187,188,189,190,191,192,193,194,195,196,197,198,199,200,201,202,203,204,205,206,207,208,209,210,211,212,213,214,215,216,217,218,219,220,221,222,223,224,225,226,227,228,229,230,231,232,233,234,235,236,237,238,239,240,241,242,243,244,245,246,247,248,249,250,251,252,253,254,255,256,257,258,259,260,261,262,263,264,265,266,267,268,269,270,271,272,273,274,275,276,277,278,279,280,281,282,283,284,285,286,287,288,289,290,291,292,293,294,295,296,297,298,299,300,301,302,303,304,305,306,307,308,309,310,311,312,313,314,315,316,317,318,319,320,321,322,323,324,325,326,327,328,329,330,331,332,333,334,335,336,337,338,339,340,341,342,343,344,345,346,347,348,349,350,351,352,353,354,355,356,357,358,359,360,361,362,363,364,365,366,367,368,369,370,371,372,373,374,375,376,377,378,379,380,381,382,383,384,385,386,387,388,389,390,391,392,393,394,395,396,397,398,399,400,401,402,403,404,405,406,407,408,409,410,411,412,413,414,415,416,417,418,419,420,421,422,423,424,425,426,427,428,429,430,431,432,433,434,435,436,437,438,439,440,441,442,443,444,445,446,447,448,449,450,451,452,453,454,455,456,457,458,459,460,461,462,463,464,465,466,467,468,469,470,471,472,473,474,475,476,477,478,479,480,481,482,483,484,485,486,487,488,489,490,491,492,493,494,495,496,497,498,499,500,501,502,503,504,505,506,507,508,509,510,511,512,513,514,515,516,517,518,519,520,521,522,523,524,525,526,527,528,529,530,531,532,533,534,535,536,537,538,539,540,541,542,543,544,545,546,547,548,549,550,551,552,553,554,555,556,557,558,559,560,561,562,563,564,565,566,567,568,569,570,571,572,573,574,575,576,577,578,579,580,581,582,583,584,585,586,587,588,589,590,591,592,593,594,595,596,597,598,599,600,601,602,603,604,605,606,607,608,609,610,611,612,613,614,615,616,617,618,619,620,621,622,623,624,625,626,627,628,629,630,631,632,633,634,635,636,637,638,639,640,641,642,643,644,645,646,647,648,649,650,651,652,653,654,655,656,657,658,659,660,661,662,663,664,665,666,667,668,669,670,671,672,673,674,675,676,677,678,679,680,681,682,683,684,685,686,687,688,689,690,691,692,693,694,695,696,697,698,699,700,701,702,703,704,705,706,707,708,709,710,711,712,713,714,715,716,717,718,719,720,721,722,723,724,725,726,727,728,729,730,731,732,733,734,735,736,737,738,739,740,741,742,743,744,745,746,747,748,749,750,751,752,753,754,755,756,757,758,759,760,761,762,763,764,765,766,767,Average Embeddings
'variasi',-0.76764053,0.2753078,0.15640673,-0.68773776,-0.8494137,3.22299,-1.5405041,0.55137426,-2.2350895,0.321492,0.36440822,0.78530926,-1.6264459,1.1129918,0.12922469,-0.646828,1.1467761,-1.0363253,-0.5398411,0.7939048,0.27216306,-0.39591852,0.52395034,-0.063041516,-0.16364354,-0.16887327,1.3494915,1.0652671,1.0105404,1.1325167,-1.3121867,-1.3879286,0.45298648,-1.4671398,-0.46678254,-1.9619603,0.15191613,0.8783781,-0.9721888,0.15679015,-0.9740508,-0.31918904,-1.8750385,-0.8330148,1.5909601,-0.9382481,-1.7409695,-1.1176437,-1.0177513,0.040419754,0.20776223,-2.1936553,-0.54445237,-0.80965537,-0.3964903,0.033774346,-1.4114357,0.00354217,0.23935415,-0.9745534,-0.07779664,2.194962,1.9858817,0.55592895,-1.7866467,0.96979547,0.63437,-1.4973421,1.3868688,-0.47299218,-0.3294271,-0.5720367,0.9580067,-0.8216247,0.29451832,0.19943583,-0.1960801,0.8270907,-0.9135575,-1.3599514,-1.8357774,-0.4605132,1.3421055,1.4079968,-0.37342143,-0.47214088,-0.23385096,-1.083103,-0.0242142,-1.5370175,0.42401806,-0.3212106,0.6148706,0.366264,0.67907715,1.2222486,-0.09804222,0.38082063,1.1148326,-0.025793588,0.2560304,-0.6301145,-1.9477186,-1.699006,1.7912437,2.2754476,0.2683454,-0.01803754,-0.9833265,1.9099932,1.6630131,0.5965094,-1.1953685,-0.3634037,0.6907112,-0.3815299,-0.2592461,-0.107054986,-0.4182652,-0.3544306,-0.29282504,0.037733555,1.2154908,0.093430124,-2.1601696,0.5766488,0.6132068,-0.2989972,-0.26215455,-0.792988,1.4065242,2.4384065,0.879142,-1.4046574,-1.1917721,1.1512896,1.1454438,0.16944213,1.3563162,0.46905923,-1.1204553,2.0148075,-0.285441,-0.44561505,1.7354759,0.8165004,-2.0340707,1.6706492,0.7110489,1.4246646,-1.0627455,0.3664151,-0.33508444,-0.7204585,1.1201038,-0.68043566,0.3178209,-0.33195004,0.15302384,-0.48540866,0.37091875,-0.21956913,-0.5386818,-1.5087649,-1.6067019,1.3300925,-0.35202584,0.78041655,-0.9288071,1.300004,0.6818755,-0.9862008,1.2802582,-0.93558687,-0.05908374,0.7706349,0.7884794,-1.1077813,-0.12308694,-1.2254848,-0.8495832,0.902675,0.49003932,1.1116582,-1.2560599,1.0793253,-0.49930847,-0.18875052,0.36918473,0.6607571,0.19368517,-1.6196971,-0.3609004,-0.7738135,0.040403705,-0.58228976,0.22830962,1.0872573,-0.6715974,-1.2594682,-2.4515352,-0.06345825,1.6068796,0.62327623,1.3546586,0.054531574,-2.4373264,-0.61771834,-0.26502872,-0.37882915,0.9407561,-0.32180777,0.19399936,-0.78627473,0.7486706,-0.6917069,1.021821,1.132803,0.9743759,1.142208,-1.953792,0.5535887,0.16020979,-2.0514052,-0.15099461,-1.7886738,-0.029538007,1.1860555,-0.84455174,-0.32430148,-1.9357878,0.19671267,0.09405253,-1.2579453,-2.191915,0.24931163,-1.74863,2.186013,0.1372853,-1.2429446,-0.27850887,-1.4468368,0.85667443,0.7504258,0.16138375,0.69796664,-2.3092852,0.33452758,0.82366085,0.8526632,0.7693227,-0.34067187,-1.1067263,0.008213971,1.7046784,-0.60496116,0.71733254,2.0122514,0.66394943,-0.123031944,-1.0977949,1.5007815,0.1857342,0.3418111,0.8679204,1.1556033,-1.4904772,0.61047846,0.07415528,-0.6428709,-0.8442653,-1.449859,-1.7943534,0.9785014,-2.032546,0.29360834,0.71038157,0.8436789,-0.3467461,1.7397815,-0.5136466,0.08997772,-0.4919699,-0.59606713,0.7188683,0.67298007,0.007314613,-0.4813392,-1.1234778,0.88435584,-0.06755459,0.6801793,-0.45062995,-0.72455317,0.89446956,0.7902098,0.3843863,0.14667703,-0.17297088,1.3904314,0.30420408,-0.61953264,-0.64038926,0.074672826,0.51040536,0.47134337,-1.2778853,-0.3284217,0.92716557,1.7416805,0.55254817,-1.9897124,0.106521726,-0.9861219,1.1409725,1.5662646,-0.63941544,0.35189202,-1.0894675,1.678577,0.4574952,0.9607441,-1.0377036,0.3515739,-0.5150582,-0.70475817,0.005241912,0.27075788,-0.27854025,0.20436966,-0.5648109,1.2484055,0.1392969,-1.3822279,-1.2783635,-1.343243,1.0662612,1.1985248,-0.8876224,-0.46488848,-0.38247797,-0.20001554,0.19090258,0.1141241,-0.54421526,-0.46039876,-0.16621774,0.07094145,0.8912335,-0.7400549,1.1302493,1.0513092,0.42634797,-0.9415739,-1.2825004,-1.4180788,1.0872515,-0.06294977,-0.1428076,1.785999,-1.1953398,1.2943316,-0.010861623,0.88044596,1.931816,-0.7961576,0.2647358,0.088797055,-0.49015477,-1.2739408,-0.19368453,-0.47408864,-0.06680107,0.3760253,-0.9319455,1.123703,0.51534724,0.7290947,-0.53917587,1.3087945,-0.2329738,0.43348706,1.0635227,0.57030755,0.44625807,0.9856851,-0.047722254,-2.6933422,1.7914816,1.6706,-0.38325253,-0.37708044,-1.0163167,-0.7062535,-0.06991516,0.735104,0.62556565,0.38560176,0.6017294,0.98547477,-0.3702282,-0.12182847,0.23137577,0.9777946,1.3779675,1.0578676,-0.2691698,-2.2922807,0.71739864,0.9245918,1.0331419,0.04932369,0.068132535,0.87869567,0.86650795,0.13269007,-0.2657002,-0.08324578,-0.3660232,0.080433875,0.76961213,-0.58154035,0.22305834,0.70814943,-0.424834,-0.3453819,-1.1987115,0.13929336,-3.5442884,0.2711211,0.04684111,0.8701315,-1.2368329,1.1432189,-0.32607573,-1.3741307,0.88657373,0.14412601,0.4009848,0.61836046,-0.6646466,0.39864263,-0.581033,1.2429773,1.9265887,-0.028322844,-1.8219929,-0.5782995,-0.19822656,0.10524994,-0.074786805,0.8084635,0.8095109,-0.51838976,-0.32038733,1.6835365,0.48257753,0.072379716,-0.70360184,-0.11053506,0.22218601,0.10225835,-1.009255,-0.6126877,-0.26953113,-1.659402,-0.6235499,0.24526489,0.75747705,-1.0166119,-0.9634133,2.3131666,-0.5488185,-2.0019326,-0.5707437,-1.5831839,-0.46450165,0.078518525,-1.0329666,-0.57405186,-1.4051056,-1.3647636,-0.27994707,-0.49648762,-0.38099754,-0.23319809,-1.2504468,0.525997,0.9016822,-0.38762227,0.36231026,0.53900456,-1.1682884,0.20991595,0.71895474,-0.22819419,1.1903453,1.2239171,0.7201356,0.03227672,2.196531,1.1964583,-0.65663415,-0.21209063,-0.4059919,-0.13380396,-1.9966408,-1.3553821,-0.23320426,-0.7931466,-1.741747,1.9042025,0.36024156,0.14701366,-1.0005049,-1.4105138,-0.50749105,-0.8065629,1.0785775,0.0397172,-1.2645878,0.6329554,1.7002583,-0.13512409,0.2635582,1.184656,-0.7912281,1.8744243,0.4590777,0.94022506,-0.8889269,-0.79883856,-2.0266013,1.1616048,-0.5004018,1.0992211,0.23576571,-1.7146889,0.003008352,2.234172,0.5810025,0.90281504,0.9778381,-2.4960396,0.57798535,0.8463443,0.62379265,-1.1756709,0.5375467,1.0819882,1.5958828,0.3555548,-0.047941353,1.2883111,0.085843734,1.1027681,-0.5600896,-0.74623436,-1.2690989,-0.07960925,1.7861519,-0.19132835,-0.74466896,0.30334333,0.54203504,-1.0790279,-0.41996384,0.3634332,0.15280789,-0.6508718,-0.16425666,0.9192645,-0.80151504,0.054116454,0.45756888,0.70285344,2.033106,0.2453747,0.97379833,-0.35208103,-1.0501152,1.2855164,1.2664262,-1.6813022,2.9323988,0.1977601,1.1390738,0.9993798,0.14051095,-1.1060767,-2.0533347,0.39334556,-0.064109005,1.0998454,0.76357645,-0.052228,-2.8055124,-1.8119186,0.2965158,0.036705706,1.9705688,-0.13748975,1.2362036,-0.54725885,-1.3283752,1.0579259,-0.7966657,2.0190651,0.64674693,-0.76998925,0.4050891,-0.63614744,-0.19756474,-1.521595,-0.30826947,-0.60136276,-1.2009897,-2.2004654,-0.3895533,0.5552836,-0.061028104,0.5838759,0.20493765,0.63677305,0.22252452,0.76191944,1.7793196,-0.2928651,0.86549944,-1.0600458,-0.8037489,0.8810803,0.20193583,-1.1737932,-1.8590927,0.1516867,0.60239285,-1.4074911,-0.60022455,-0.7568907,-0.43978825,1.3966466,0.68786216,-0.62895256,-0.13192213,-0.7468658,0.24212311,-1.6941504,-0.7364595,0.305191,0.9685657,-1.5014668,-0.56325656,-0.75543946,0.06591609,-0.23434953,-0.8546548,0.43737936,0.398718,2.2232296,-0.15330656,1.3119682,0.7318527,1.4775432,0.4201564,0.11566434,-1.2113236,0.54333085,-0.8115961,-0.1281465,-1.2864796,-0.7605118,1.3796339,-0.88324744,0.041130308,0.08357012,-1.5001634,-2.2009034,0.13892043,0.22952934,-0.6773333,-1.3347406,0.26925716,0.21483941,-0.7310675,2.0189521,0.7022064,-0.8145437,0.38537517,-0.72844267,0.32246187,0.3203136,-0.098579854,0.4941145,-0.3292614,1.3961815,2.8618212,0.42626044,0.57261544,-0.32761678,0.7476614,-0.58972687,-1.1117293,0.7276464,-1.3146526,1.3049886,-0.25563273,0.58223295,-0.1804248,-0.12900151,0.5293042,0.39108822,1.269959,1.3013018,-0.49599305,-0.031644154,-1.0445546,-1.5717484,-0.764847,0.53058857,0.7790766,-0.001558593,1.7835296,-0.4271011,-1.9443021,-0.6530859,-0.43350992,1.6676627,-0.61787033,1.1036954,1.9426293,1.1917146,0.40221575,-0.49328914,-0.2620035,1.8776695,0.839323,-1.247808,0.031028187,0.5932069,-1.3409065,0.1344252,-1.3559574,-0.52583545,0.3518019,0.16005741,-1.4394065,-0.454438,1.8354874,-0.5372324,-0.2860756,-0.7119326,-1.5107355,0.4743911,1.4202427,-0.7657463,0.1949539,-0.8807772,-1.0884463,-0.729574,0.824794,-0.75598335,1.3635575,-0.60712844,0.70954084,1.3133636,1.6125793,0.92052007,-0.001233392
'thresholding',-0.7448357,0.23858647,0.16648032,-0.64988095,-0.84066683,3.3273315,-1.5373325,0.5450387,-2.3381925,0.30641654,0.35840508,0.67996925,-1.520248,1.0572853,0.114734195,-0.6852813,1.1563591,-0.99322206,-0.5693363,0.8505764,0.3509368,-0.46078518,0.46223125,-0.04139861,-0.23980641,-0.2660996,1.3682623,1.0407695,1.0445753,1.1472763,-1.241326,-1.4024619,0.50683683,-1.3576304,-0.42190102,-1.9586815,0.09071416,0.8790319,-1.0677134,0.20749037,-0.99539834,-0.31067976,-1.924088,-0.8447184,1.7239527,-1.0430875,-1.7273355,-1.248412,-1.0474186,0.022165745,0.10639122,-2.27708,-0.5614699,-0.7820468,-0.36056003,0.044314563,-1.433824,0.045163095,0.18414223,-0.92363024,-0.08580064,2.166307,2.04527,0.60650957,-1.7086807,1.0080351,0.5749837,-1.5408907,1.4046057,-0.41494453,-0.34548298,-0.4722937,0.97670364,-0.8169754,0.26748896,0.17772825,-0.30271283,0.9206887,-1.0417609,-1.3626639,-1.8878902,-0.4362991,1.2367591,1.5678052,-0.34749618,-0.4785061,-0.1265492,-0.99880964,-0.06781129,-1.6002898,0.3627557,-0.24428837,0.52558815,0.4926786,0.62095666,1.0761908,-0.16982818,0.4039143,1.0775017,0.039237004,0.21100555,-0.46307108,-1.838739,-1.6195754,1.7914556,2.2475193,0.36237684,-0.08293755,-1.0567018,1.8398875,1.6750602,0.5804363,-1.1496994,-0.38889542,0.70326775,-0.4723021,-0.29325518,-0.09789312,-0.37699652,-0.29888356,-0.40388536,-0.03628638,1.1633844,0.043557387,-2.1480596,0.61811805,0.57491976,-0.2179753,-0.23087053,-0.8183902,1.3969846,2.3795812,0.8850641,-1.4067054,-1.1661693,1.1046108,1.175438,0.17982852,1.4875346,0.5573359,-1.1049372,1.9737648,-0.32115182,-0.48860517,1.7851528,0.78961986,-2.0937269,1.7366761,0.5521442,1.4164747,-1.1323713,0.41005197,-0.4370133,-0.7556712,1.1295148,-0.7388982,0.4043977,-0.29681417,0.17766725,-0.48414016,0.4080752,-0.12462943,-0.67472523,-1.3497487,-1.5654444,1.1897959,-0.3012735,0.8100915,-0.9561079,1.3114794,0.77293044,-0.9486432,1.2551428,-0.9106335,0.00901476,0.77176684,0.8316045,-1.1145569,-0.04647371,-1.2347503,-0.7478581,0.8412846,0.47914353,0.99303323,-1.2715498,1.0587353,-0.5265042,-0.1338587,0.39282492,0.68598795,0.04731838,-1.716669,-0.313235,-0.87709063,-4.07E-05,-0.582318,0.21685869,1.097911,-0.69281596,-1.2923471,-2.332929,-0.10166538,1.5758439,0.5495898,1.443892,-0.012038411,-2.391659,-0.6804791,-0.26360354,-0.3152782,0.99551827,-0.39172855,0.1338697,-0.7426,0.8195419,-0.7651048,1.0717207,1.1184051,1.0063605,1.105113,-1.9734772,0.62463087,0.0400982,-1.9651445,-0.035386324,-1.7643286,0.019167287,1.224557,-0.8109887,-0.37529716,-1.960189,0.28969344,0.04166439,-1.3285569,-2.1618989,0.09948311,-1.7689301,2.015732,0.092355035,-1.2819295,-0.2536592,-1.3776344,0.8588162,0.7027152,0.32265857,0.76369953,-2.4222603,0.25403848,0.9780447,0.8836668,0.8094829,-0.28824353,-1.0054969,0.101238154,1.7150106,-0.58069026,0.7341345,2.0416558,0.5768451,-0.2026365,-1.098017,1.5080304,0.17075826,0.35324183,0.85840017,1.1469283,-1.4077759,0.7806774,-0.027384339,-0.55328274,-0.8750127,-1.4625716,-1.7806927,0.9674292,-1.9463888,0.24288285,0.81991476,0.8952231,-0.35793254,1.6562947,-0.47926256,0.094528295,-0.53558534,-0.5667401,0.63820034,0.6654985,-0.049656976,-0.43985,-1.1613604,0.9177074,-0.043143526,0.5944347,-0.5479792,-0.6696425,0.978785,0.76210696,0.3888775,0.27768907,-0.18116708,1.2628572,0.2105528,-0.5567925,-0.76967114,-0.018314129,0.44896427,0.5066274,-1.1584653,-0.27906737,0.9140702,1.6310639,0.6053049,-1.9169712,0.10787532,-0.9420252,1.1957179,1.6518354,-0.56115603,0.27742025,-1.0311126,1.7803513,0.53032637,0.7610864,-1.0996876,0.3615906,-0.52032983,-0.7145426,-0.006417036,0.19276331,-0.32525715,0.23729523,-0.5454272,1.2637345,0.095233925,-1.4501052,-1.2394732,-1.3037683,1.0669861,1.1392559,-0.8771839,-0.48268065,-0.37612554,-0.25671574,0.17219804,0.12760721,-0.59607583,-0.4308804,-0.06639344,0.07305961,0.9539884,-0.8227906,1.1233724,1.087464,0.416079,-0.8099455,-1.3213787,-1.4385124,0.99134445,-0.035669964,-0.1575584,1.8000547,-1.0906385,1.2696307,-0.021931732,0.85948753,1.8432583,-0.9246009,0.22042899,0.07100624,-0.51870537,-1.2975672,-0.15747847,-0.32314542,-0.051120166,0.44885826,-0.86983484,1.1824557,0.48049334,0.7282663,-0.40964007,1.3109897,-0.22755338,0.47285378,0.9553818,0.54533786,0.39490357,1.0439013,0.047454417,-2.7683105,1.7185086,1.8065904,-0.3421938,-0.37112606,-1.0365831,-0.7126772,-0.049725085,0.78173214,0.7035384,0.41459545,0.5958478,1.0217538,-0.4507126,-0.08781249,0.26706684,0.99266624,1.3545732,0.956625,-0.29659757,-2.3144834,0.5842228,0.76818925,1.1078328,-0.038637068,-0.056390464,0.94456416,0.83181816,0.14592494,-0.33027506,-0.11881005,-0.35172606,-0.017647138,0.73750186,-0.5333793,0.269967,0.68071795,-0.46806252,-0.2783647,-1.2809373,0.13482912,-3.5206177,0.27106705,0.046455804,0.83128816,-1.2623035,1.094144,-0.25872755,-1.380885,1.0664784,0.2767237,0.35129738,0.5788553,-0.64534783,0.27228472,-0.5451221,1.2426227,1.9366713,0.007031145,-1.7818313,-0.49008465,-0.23008452,0.12327955,-0.12943582,0.8694927,0.8540725,-0.44343266,-0.1988054,1.6042343,0.5521952,0.0877242,-0.79191726,-0.15604407,0.2092731,0.013955574,-0.9548152,-0.6376962,-0.2978138,-1.7163574,-0.6561417,0.15595596,0.9646023,-1.0762339,-1.0083325,2.256314,-0.45790863,-1.9058157,-0.53582335,-1.5258876,-0.47614762,-0.044852614,-0.99923676,-0.6676714,-1.3814534,-1.2624944,-0.34008697,-0.5420592,-0.40034172,-0.2771104,-1.2746261,0.47467852,0.8469468,-0.44840923,0.33501577,0.60684365,-1.1891259,0.010345665,0.6146635,-0.15801567,1.1584455,1.2836504,0.83992887,-0.06042759,2.169593,1.2299075,-0.63309044,-0.2952417,-0.35256538,-0.22643064,-1.9436707,-1.3293985,-0.18299757,-0.7574591,-1.7735653,1.7897979,0.43153408,0.1349554,-0.9435262,-1.2798854,-0.46230006,-0.84582645,1.1105174,0.14010082,-1.3481323,0.66857713,1.6364597,-0.12902641,0.29283378,1.2253839,-0.8289995,1.8868448,0.46336636,0.9959586,-1.0084815,-0.8770573,-1.9484631,1.1578673,-0.5124274,1.1012057,0.060896646,-1.791626,-0.006590035,2.1932175,0.5949335,0.7752672,1.1432997,-2.619228,0.55055684,0.8378112,0.6556142,-1.2414678,0.5066719,1.1028482,1.5966868,0.37642303,-0.10622975,1.1892595,0.08638842,1.0025729,-0.58219784,-0.78403705,-1.3113195,-0.25241497,1.7527565,-0.27968428,-0.6805146,0.14746504,0.5313023,-1.0360383,-0.37702742,0.30229917,0.260311,-0.5863486,-0.118622504,0.89824325,-0.76515156,0.10197172,0.56819946,0.7713825,1.994914,0.30921528,1.013637,-0.39459765,-0.9600844,1.2807136,1.2318609,-1.6699041,2.9135265,0.09197321,1.2183672,0.94319385,0.2172544,-1.0935446,-1.9864022,0.43400252,-0.17089915,0.9894218,0.793659,-0.00084635,-2.7909806,-1.8727427,0.31530926,0.066268705,2.0455244,-0.16370703,1.3165221,-0.60178095,-1.3356861,1.0030502,-0.79948086,2.0949063,0.6068979,-0.8121519,0.41837063,-0.60326874,-0.11104545,-1.5430166,-0.27469847,-0.5999723,-1.1758658,-2.2782507,-0.3779036,0.5740535,-0.059788812,0.57282937,0.34545526,0.5927451,0.17719567,0.7550444,1.8703318,-0.35253477,0.84116554,-0.9859896,-0.8207634,0.90479237,0.25415003,-1.1640838,-1.9303411,0.19686373,0.7335765,-1.4205265,-0.57261634,-0.8104299,-0.50325036,1.3685464,0.6945558,-0.58756584,-0.19407421,-0.70328015,0.3233733,-1.7756377,-0.7864489,0.4018129,0.9523304,-1.5636755,-0.5477124,-0.71287555,0.14366835,-0.19768222,-0.7900622,0.39311025,0.46886936,2.2601082,-0.13005011,1.3037478,0.7147729,1.4487362,0.47730443,0.13572769,-1.2714276,0.505565,-0.89852524,-0.1107691,-1.2648051,-0.7490711,1.3873485,-0.79891205,0.0705507,0.21147038,-1.5235844,-2.1735332,0.15111195,0.25262964,-0.59908676,-1.3671044,0.332909,0.32863906,-0.67909473,2.1209576,0.72342354,-0.850138,0.47743165,-0.5880732,0.2947025,0.3547181,-0.09369787,0.5139087,-0.29771045,1.2796577,2.829195,0.31407157,0.5908151,-0.36481306,0.75321054,-0.58000493,-1.0688266,0.6735401,-1.2557263,1.3558372,-0.30616176,0.6364927,-0.23337717,-0.19272296,0.43896484,0.3700075,1.2434512,1.4392242,-0.5578554,-0.004337853,-0.968561,-1.588334,-0.8304034,0.4894164,0.78827125,-0.08599325,1.809501,-0.5401375,-1.9300534,-0.59361935,-0.26957938,1.6462911,-0.6922849,1.1262075,1.8840265,1.2389745,0.4316449,-0.44218376,-0.3855004,1.9686579,0.8996277,-1.1994319,0.05626006,0.6741714,-1.2546666,0.16029038,-1.2600058,-0.5406956,0.3097869,0.08131374,-1.3857576,-0.4635127,1.8269634,-0.5156391,-0.28182182,-0.6384137,-1.4995989,0.43494454,1.4550852,-0.8083481,0.17750889,-0.8451552,-1.1135224,-0.80930215,0.87597746,-0.8724721,1.3091468,-0.7511842,0.72438025,1.1983455,1.5644244,0.94786197,-0.001251714
'segmentasi',-0.7333147,0.20671785,0.2061383,-0.6406327,-0.82152957,3.260189,-1.592111,0.5578979,-2.3288128,0.38447365,0.40096554,0.6585973,-1.5220865,1.0885714,0.05878797,-0.68936795,1.1112027,-0.9936554,-0.47879407,0.8596793,0.36300388,-0.50004536,0.4200058,-0.048769902,-0.2949234,-0.3305266,1.3563296,1.0338279,1.0689939,1.1271324,-1.2793792,-1.4169749,0.51200694,-1.3294994,-0.4430752,-1.971393,0.10912431,0.9476474,-1.0768865,0.17815708,-1.0433861,-0.30610335,-1.9204572,-0.845146,1.7686262,-1.0027137,-1.7058512,-1.2588863,-1.0819182,-0.015160442,0.15215214,-2.2184227,-0.5904571,-0.7855864,-0.38521472,-0.03805311,-1.4402062,0.016547492,0.24915797,-0.94852215,-0.13400118,2.1554642,2.0454762,0.6050498,-1.6615394,0.9716024,0.5516316,-1.5228988,1.4667788,-0.399285,-0.3884116,-0.50326693,0.9569922,-0.83172894,0.2510052,0.18649364,-0.3060665,0.97542715,-1.0691237,-1.3516912,-1.8429022,-0.47443664,1.2290322,1.6020142,-0.40981328,-0.4644029,-0.1420601,-0.9669439,-0.06661094,-1.5760641,0.38927126,-0.3128558,0.5219681,0.53635085,0.5793501,1.1223546,-0.20238934,0.40127954,1.0908242,-0.015462689,0.1848497,-0.44300377,-1.8379294,-1.6827279,1.7967044,2.2251353,0.36239842,-0.07674755,-1.0466774,1.8550023,1.6571894,0.5890799,-1.1346256,-0.40661684,0.7286276,-0.4686011,-0.26986262,-0.03809871,-0.45285133,-0.30793387,-0.44720864,-0.007369732,1.2368317,0.05841591,-2.1285203,0.63907176,0.5772867,-0.2614602,-0.24367654,-0.7985652,1.3839773,2.3175616,0.95977545,-1.406002,-1.1824435,1.1544703,1.1554686,0.19201885,1.4709541,0.51864433,-1.1467203,1.9699091,-0.32223117,-0.5013732,1.75253,0.76634246,-2.0296743,1.7201992,0.5819884,1.386506,-1.1073827,0.42387393,-0.40627512,-0.7302208,1.1245166,-0.69752026,0.32788822,-0.2901912,0.19990563,-0.44387594,0.42083907,-0.17137855,-0.6375987,-1.3724017,-1.5874406,1.2584594,-0.3237487,0.7998082,-0.99014014,1.3332704,0.6948015,-0.9380552,1.2342582,-0.9258408,-0.007243756,0.71257496,0.8122694,-1.0453699,-0.050044447,-1.324134,-0.7120879,0.83781725,0.4696068,0.9818546,-1.2454861,1.099291,-0.5947723,-0.117061496,0.380587,0.67956424,0.08477619,-1.7263479,-0.24547952,-0.8764691,-0.003769958,-0.5818272,0.25576603,1.1490728,-0.6980355,-1.2838272,-2.3047569,-0.06515957,1.5448586,0.55478877,1.462832,0.052729815,-2.372794,-0.6139359,-0.28817225,-0.30130577,0.9942768,-0.3621303,0.1559205,-0.80162144,0.8527748,-0.7652347,1.0837103,1.1141764,0.95034987,1.0727524,-1.9580112,0.60808307,0.00456438,-1.9556156,-0.0296904,-1.7683606,-0.033496346,1.2202591,-0.847205,-0.35270974,-1.9661716,0.26521093,0.05768742,-1.3196434,-2.2034311,0.12358192,-1.7454516,2.049244,0.04127406,-1.2977178,-0.25586927,-1.416987,0.80605817,0.69355816,0.29310474,0.72947305,-2.4120173,0.2680364,1.0023872,0.85980195,0.82745355,-0.27979258,-0.9506877,0.09682547,1.6735002,-0.5690096,0.72132254,1.9973987,0.54292184,-0.18995903,-1.1022528,1.539646,0.20711996,0.37713635,0.83117676,1.1460941,-1.3929577,0.76082855,-0.02291693,-0.51917624,-0.8347109,-1.4583782,-1.7724142,0.9775719,-1.9757398,0.23321255,0.81653,0.90142184,-0.3221462,1.6679796,-0.4692386,0.048988204,-0.5289037,-0.6067516,0.6953864,0.7336615,-0.022246184,-0.44278112,-1.1585349,0.9602478,-0.055759925,0.5119329,-0.5294207,-0.68852687,0.98622483,0.7372804,0.362918,0.3134379,-0.1787739,1.2835382,0.20558514,-0.5018599,-0.75359774,-0.07248714,0.50238746,0.48240042,-1.184998,-0.28143606,0.8787327,1.5997047,0.6003961,-1.9250816,0.114755034,-0.88574654,1.2092862,1.6253122,-0.6102033,0.24673142,-1.0157267,1.7197486,0.60730237,0.8463993,-1.1168841,0.38264087,-0.51751816,-0.73047304,0.049546793,0.1825128,-0.3510959,0.21501385,-0.52141035,1.2431298,0.066624105,-1.3612328,-1.2531185,-1.3166771,1.1313254,1.1245533,-0.8560503,-0.48022604,-0.27728465,-0.23156627,0.13535976,0.15078925,-0.63228935,-0.47571954,-0.07465932,0.060968745,0.9266159,-0.7719257,1.0994397,1.0611979,0.41353378,-0.8297212,-1.2848668,-1.4614911,0.99117917,-0.091994025,-0.07442496,1.7504176,-1.0526255,1.2394959,-0.019455912,0.92169815,1.8798057,-0.95354414,0.19335334,0.043813433,-0.5380898,-1.2448736,-0.20784403,-0.26485574,-0.11919904,0.49235263,-0.86057955,1.1503693,0.534738,0.7424154,-0.4127581,1.3396457,-0.20793794,0.4853088,0.97755784,0.5115368,0.37921488,1.0663015,0.06231463,-2.7420123,1.6681169,1.80717,-0.33915293,-0.34553802,-0.99122506,-0.7325111,0.01932437,0.77292806,0.7124026,0.38213977,0.5983427,1.0309091,-0.44973186,-0.07678741,0.27610165,0.97841376,1.4144759,0.9716795,-0.2959919,-2.3221605,0.6293511,0.7616189,1.1015671,0.008153115,-0.03665926,0.99177146,0.79437894,0.118344605,-0.31891403,-0.11017954,-0.32240155,0.028104072,0.8161656,-0.6023314,0.25451636,0.7263591,-0.42197445,-0.3288503,-1.2637457,0.11971489,-3.5568447,0.21986961,0.0677942,0.8278243,-1.3222849,1.1437068,-0.23008971,-1.3744804,1.0445656,0.27257976,0.37348554,0.6006248,-0.6639116,0.35371163,-0.540734,1.2740062,1.950812,-0.013348485,-1.7906235,-0.4763259,-0.20686929,0.14043653,-0.15379976,0.8287441,0.81080866,-0.47341657,-0.2074546,1.6102496,0.64440536,0.030619303,-0.75855476,-0.08623869,0.24671586,0.004708412,-0.8706379,-0.6214495,-0.32078955,-1.7282237,-0.66886467,0.14130329,0.9063427,-1.0651482,-1.0246152,2.3148983,-0.4667085,-1.9029465,-0.54688627,-1.5055021,-0.45077386,0.0717786,-0.97878045,-0.6855734,-1.4034748,-1.2594913,-0.3226526,-0.5657507,-0.36197773,-0.2878311,-1.2846868,0.4864978,0.7899547,-0.4539547,0.40215123,0.61023635,-1.1936055,0.067510545,0.6373499,-0.21997935,1.0863177,1.2465426,0.80654496,-0.08494388,2.1874502,1.2711753,-0.66516274,-0.32942924,-0.40078282,-0.27015206,-1.938973,-1.3190966,-0.21901488,-0.76631993,-1.8027807,1.8257581,0.4439483,0.16433388,-0.980828,-1.2891701,-0.46823108,-0.80836695,1.0998882,0.12562248,-1.35137,0.6825535,1.6543617,-0.13038547,0.29478934,1.2458601,-0.8007922,1.861474,0.42842582,0.96226454,-0.9988389,-0.92569524,-2.0341249,1.1834639,-0.5736893,1.1218199,0.050848305,-1.7911571,0.062211994,2.2216508,0.59324527,0.80288845,1.1943413,-2.5769665,0.49111977,0.8041168,0.62680846,-1.2597724,0.5258678,1.1019157,1.5504489,0.39668474,-0.06379673,1.2038858,0.046222787,0.9896457,-0.6008104,-0.77150583,-1.3305693,-0.24171393,1.73131,-0.3067927,-0.7002292,0.10065233,0.4876338,-1.0156382,-0.40542516,0.31822166,0.23059027,-0.5824653,-0.1491398,0.974577,-0.732646,0.050057646,0.54423183,0.8307827,1.9945116,0.32080615,0.99535584,-0.43758404,-0.92205244,1.3356494,1.239325,-1.6779476,2.9234009,0.101124234,1.2123388,0.9443285,0.19696625,-1.0897218,-1.9709021,0.37073776,-0.16361208,1.0046057,0.7815319,-0.07746818,-2.800356,-1.8837858,0.3123249,0.1020836,2.0487373,-0.1828751,1.3030645,-0.5684158,-1.3501606,0.9843149,-0.7892153,2.0673363,0.6261317,-0.79916006,0.43214282,-0.59854484,-0.056671724,-1.5143143,-0.309274,-0.6147618,-1.1756568,-2.2350574,-0.39586797,0.48452055,-0.034042664,0.5870791,0.3709745,0.6033882,0.18304682,0.80594355,1.8916601,-0.3454806,0.8311567,-0.96333224,-0.8189258,0.9026606,0.2496692,-1.1359226,-1.9614369,0.2560185,0.66144204,-1.4684604,-0.6030604,-0.7927809,-0.54725856,1.3438853,0.7147767,-0.6428072,-0.1982917,-0.7750983,0.39111555,-1.7621521,-0.7853587,0.35442197,0.94168705,-1.5826789,-0.5382939,-0.73048836,0.14778705,-0.18365104,-0.80379915,0.38747206,0.43379286,2.2976456,-0.12995443,1.262291,0.71567196,1.4541329,0.4996051,0.16374241,-1.2381136,0.5329992,-0.85588783,-0.07354319,-1.2523637,-0.7512838,1.3625833,-0.76817137,0.05820797,0.23204684,-1.5344008,-2.1289868,0.19434822,0.23378222,-0.5978198,-1.3364996,0.36199412,0.33219078,-0.72556186,2.084039,0.7597356,-0.8583078,0.42637432,-0.5805726,0.30720305,0.3337662,-0.10260571,0.5162056,-0.32581064,1.32787,2.824133,0.27562127,0.65232867,-0.37600806,0.718906,-0.598848,-1.0255505,0.6488374,-1.2183934,1.3129224,-0.23951721,0.6454088,-0.16481806,-0.21010065,0.4372714,0.3815726,1.1936477,1.4488195,-0.581389,-0.019017592,-1.0071025,-1.5836129,-0.8565922,0.41222706,0.79529244,-0.12745912,1.7825156,-0.51698107,-1.9281812,-0.6579229,-0.3051302,1.6239713,-0.71918505,1.1063306,1.955135,1.2152777,0.41619372,-0.4155306,-0.3343737,1.9879361,0.8225417,-1.2207707,0.061887424,0.69416064,-1.2447896,0.12546624,-1.2648315,-0.57701176,0.32829583,0.12916894,-1.4679741,-0.4518354,1.8355943,-0.55371493,-0.2723615,-0.6535488,-1.5300983,0.4890801,1.4418265,-0.76404905,0.14213474,-0.8313126,-1.1511,-0.8190096,0.9098304,-0.8351564,1.3766584,-0.71039385,0.74782616,1.1755031,1.5366853,0.9770479,-0.001203729
'darah',-0.737003,0.20062368,0.25060838,-0.64101845,-0.81981725,3.2301636,-1.6096439,0.58616203,-2.2315996,0.36406493,0.33880594,0.69754857,-1.5172929,1.1489714,0.024159225,-0.6495042,1.0893208,-1.0160054,-0.5014508,0.9195125,0.35702577,-0.49477902,0.43795243,-0.037393544,-0.2614577,-0.24599703,1.3849026,1.0684538,1.0434796,1.1255485,-1.3153806,-1.3284067,0.4795154,-1.3536191,-0.53713316,-2.0202203,0.08275054,0.91440946,-0.9911578,0.29051074,-0.9361226,-0.24409352,-1.8904566,-0.8483855,1.6632179,-1.0313629,-1.6760101,-1.202365,-1.0242121,-0.015407476,0.15088613,-2.1530056,-0.60410374,-0.7780861,-0.37327603,-0.07263704,-1.4734358,0.03268993,0.2343918,-1.0157957,-0.08555009,2.1977024,2.040338,0.5769274,-1.808118,1.043073,0.5687122,-1.5077618,1.4409851,-0.38457403,-0.32054213,-0.44561586,0.95704985,-0.84567714,0.37074876,0.21343918,-0.30362222,0.9699901,-1.0018896,-1.4577643,-1.7334863,-0.4558176,1.2301615,1.5182034,-0.35341284,-0.42970014,-0.19652693,-0.9610634,-0.10862886,-1.5753183,0.32666528,-0.35910225,0.5444457,0.49190173,0.6101636,1.1106476,-0.16368519,0.3690743,1.1117889,-0.101224504,0.18700337,-0.52084833,-1.8561339,-1.5837749,1.8087626,2.202766,0.35689986,-0.032167297,-1.0036505,1.7781531,1.656216,0.5215261,-1.1750163,-0.34513244,0.7295559,-0.48683718,-0.3329885,-0.12784624,-0.43921003,-0.25144184,-0.37233663,0.052851934,1.1937774,0.070975214,-2.0786076,0.6136513,0.6086386,-0.26413286,-0.24667346,-0.74938387,1.3310021,2.3338683,1.0008122,-1.4068667,-1.238722,1.1603321,1.1856447,0.2602017,1.4403172,0.5364437,-1.2569989,2.002055,-0.27180693,-0.49553922,1.755352,0.74935657,-2.0763023,1.6543431,0.64435905,1.4283456,-1.1035912,0.36770082,-0.2964192,-0.7806758,1.1275308,-0.69875354,0.3689138,-0.24318011,0.19623268,-0.50353795,0.43782797,-0.16216506,-0.6011714,-1.3859197,-1.5197525,1.3268532,-0.2979226,0.7862628,-0.8881267,1.28926,0.738583,-0.90662056,1.3044132,-0.9672255,0.000799003,0.796318,0.8369717,-1.0624701,-0.038684644,-1.165285,-0.7926752,0.7462172,0.4134024,1.0332828,-1.3161343,1.0229156,-0.59636855,-0.20114422,0.45392537,0.71041995,0.117688775,-1.657777,-0.26163507,-0.83555,-0.08522599,-0.50151664,0.29333818,1.2679069,-0.7641249,-1.3247497,-2.3821433,-0.023229232,1.5851636,0.56134295,1.4363023,-0.015323639,-2.3600738,-0.596392,-0.30020738,-0.21108504,0.96827334,-0.34839353,0.19292165,-0.8370994,0.7128913,-0.83255154,1.0096087,1.1334605,0.9099621,1.0666806,-1.9590813,0.6030989,0.025750456,-2.1070313,-0.06689134,-1.7325155,-0.12151414,1.2900699,-0.8489441,-0.39998326,-1.9716214,0.30826208,0.06697923,-1.2020725,-2.1590612,0.05077784,-1.7720793,2.093846,0.03482191,-1.3269835,-0.2704213,-1.4396458,0.8925782,0.6121106,0.3453004,0.8497393,-2.4310591,0.2562319,0.862048,0.95401555,0.81594247,-0.18798156,-1.0084405,0.122793466,1.699122,-0.66757554,0.6710338,2.0264559,0.569658,-0.08440214,-1.0793611,1.480569,0.21055184,0.32816857,0.8350994,1.1212853,-1.4750462,0.6235208,-0.041520998,-0.60255414,-0.92053586,-1.380797,-1.6826202,0.9348242,-2.0540822,0.24528581,0.87243634,0.86665916,-0.28533188,1.6382012,-0.45001712,0.09245505,-0.48200378,-0.5167109,0.66896325,0.7207797,-0.086859696,-0.41733286,-1.1227385,0.9852261,-0.15121232,0.6057424,-0.49196425,-0.67500997,1.0245613,0.7907385,0.33214903,0.22699909,-0.2508831,1.2939163,0.3996849,-0.52105945,-0.72892284,0.15802476,0.4346881,0.3971536,-1.2661191,-0.24820922,0.98620707,1.7093977,0.538075,-1.938512,0.20504434,-0.91116756,1.1598341,1.5782264,-0.6365536,0.3168265,-0.9909149,1.7760957,0.5982885,0.88168764,-1.1538205,0.38511667,-0.5474263,-0.7262476,0.03380524,0.20056772,-0.3824234,0.19933362,-0.573257,1.2764801,0.10414091,-1.4448541,-1.2795645,-1.2991017,1.1132898,1.1096148,-0.8710206,-0.50941557,-0.28182098,-0.29153123,0.15776072,0.18213548,-0.6413465,-0.53548646,-0.19865854,0.14460084,0.87715775,-0.7565999,1.109088,1.1027721,0.48075673,-0.8076475,-1.2724131,-1.4375652,0.9422631,-0.10641506,-0.0757029,1.7082819,-1.1347183,1.3160931,0.001466237,0.93437093,1.9131317,-0.82061833,0.20666295,0.02901105,-0.5028363,-1.2671986,-0.19471073,-0.38827464,-0.10967558,0.37365142,-0.9208738,1.1881486,0.4404563,0.76718813,-0.45944607,1.3465309,-0.22265433,0.5230205,0.9609987,0.55864763,0.4090747,1.0598541,0.03629331,-2.7194898,1.7295185,1.7426472,-0.46370867,-0.35923028,-1.0717673,-0.66270995,0.029335907,0.8309033,0.78167725,0.29846516,0.6712425,0.99919343,-0.37607253,-0.1443984,0.27187914,0.8602684,1.3991247,1.0284652,-0.31558928,-2.3028157,0.7135388,0.776357,1.0434146,0.039256345,-0.020069236,0.9828411,0.7894601,0.17210801,-0.36452475,-0.07772446,-0.40817797,0.05029625,0.8191158,-0.6433874,0.17598109,0.70253944,-0.5321999,-0.37709665,-1.2295862,0.093875684,-3.5197265,0.26725847,0.069809996,0.87776214,-1.2929393,1.2099413,-0.2948746,-1.3700762,0.9901784,0.29632115,0.30664405,0.60074455,-0.61384946,0.33777216,-0.5450683,1.185818,1.9373726,0.05700328,-1.7650629,-0.48926446,-0.1837684,0.08858784,-0.055067074,0.79395324,0.8495583,-0.45346153,-0.20119745,1.6800519,0.5584094,0.08234773,-0.7531875,-0.11952705,0.2506851,0.004053121,-0.9606733,-0.59074163,-0.3025593,-1.7700812,-0.68445826,0.18802369,0.94088715,-1.014618,-0.9817629,2.3164396,-0.45537472,-1.9176565,-0.547594,-1.6278634,-0.43856654,-0.011815955,-1.0191014,-0.47932687,-1.3436517,-1.2587422,-0.3643668,-0.5336713,-0.3491583,-0.1770556,-1.2921284,0.5121363,0.80913544,-0.4496056,0.38312614,0.5649622,-1.1823689,0.035990167,0.63744146,-0.19050582,1.2278174,1.3365741,0.75999564,-0.12838408,2.2437394,1.2330965,-0.65184164,-0.2721491,-0.37672135,-0.2713841,-1.9965159,-1.2775668,-0.22241734,-0.72360736,-1.7877165,1.8014445,0.39254382,0.1627175,-0.9413209,-1.4207269,-0.49454653,-0.79837006,1.0635715,0.06569981,-1.3486782,0.6815583,1.6860348,-0.14228304,0.24136333,1.1451675,-0.7722762,1.8950583,0.47781458,0.9383605,-0.95057577,-0.87711793,-1.9833055,1.2036905,-0.5894864,1.1194621,0.001252629,-1.8034362,0.00610129,2.1779459,0.5683515,0.7580771,1.0928745,-2.4558895,0.55332303,0.8233562,0.6191502,-1.1948785,0.5107749,1.0337871,1.5024147,0.34416822,-0.01845131,1.2123499,0.06921085,1.0487517,-0.5571044,-0.8037112,-1.4247609,-0.2036614,1.7454232,-0.3248829,-0.7197099,0.22396655,0.44215128,-0.99038917,-0.47529137,0.29553646,0.2409818,-0.5312982,-0.1124244,0.9302614,-0.8214528,0.018761525,0.4736489,0.86932606,2.0321946,0.3261506,1.0184181,-0.35172868,-0.87189144,1.2470199,1.2227892,-1.7099777,2.9127467,0.09201241,1.1967028,0.97276276,0.17880583,-1.0496238,-2.1073415,0.45988163,-0.02092555,1.0141214,0.790385,-0.055035904,-2.7027385,-1.871842,0.28559402,0.002414899,2.0504837,-0.17088795,1.3191453,-0.54784167,-1.3363606,1.0047146,-0.77857447,2.0024242,0.6367075,-0.7459171,0.44374517,-0.62157923,-0.16026722,-1.5259959,-0.43533087,-0.72849804,-1.1666201,-2.271406,-0.39247727,0.5565702,-0.061943937,0.59411174,0.2758474,0.58604074,0.25520143,0.7953382,1.9150394,-0.23881088,0.8838086,-1.0450834,-0.79839104,0.7749272,0.28566685,-1.1071955,-1.89432,0.22703855,0.6543529,-1.45931,-0.56236637,-0.80097693,-0.50871706,1.3564011,0.7077748,-0.60704225,-0.29153532,-0.74365634,0.36100188,-1.7329313,-0.8306613,0.3526561,1.0023876,-1.6246141,-0.57866555,-0.7405301,0.17762513,-0.20044577,-0.8673129,0.35619906,0.41396716,2.3165796,-0.23695229,1.1854931,0.6913254,1.483469,0.4222611,0.2661498,-1.2825922,0.47398505,-0.8643331,-0.023816079,-1.2417334,-0.6823637,1.3843712,-0.8121206,0.12640075,0.16232805,-1.4854065,-2.2283192,0.13155578,0.24802701,-0.7346144,-1.4242953,0.2859796,0.3320483,-0.7507944,2.0695536,0.7371848,-0.87800974,0.45222118,-0.6331546,0.34814727,0.31957412,-0.13775973,0.5592859,-0.44849095,1.3443681,2.7377279,0.18200636,0.57009745,-0.42222905,0.71903086,-0.56327367,-1.055015,0.71789736,-1.291901,1.3954829,-0.20336485,0.7143522,-0.1185168,-0.09754539,0.45640627,0.30840728,1.2533174,1.4321371,-0.6181436,-0.028898,-1.0485014,-1.5487515,-0.82663184,0.4619232,0.8167057,-0.12753545,1.7921658,-0.5129271,-1.822361,-0.6178237,-0.33853486,1.6441909,-0.79805785,1.129275,1.9690489,1.3026899,0.3422602,-0.2619461,-0.38812208,1.906397,0.8388769,-1.2462492,0.118122466,0.73844904,-1.2128496,0.19168986,-1.2050809,-0.49118853,0.39483666,0.11631637,-1.3353581,-0.47029963,1.8075918,-0.5494171,-0.26457974,-0.6834865,-1.5070089,0.514071,1.4200445,-0.9217282,0.17117643,-0.96850634,-1.1434904,-0.82645017,0.8878624,-0.88016385,1.3831323,-0.706475,0.6918723,1.1807336,1.5155748,0.9636817,-0.001195303
'citra',-0.7287278,0.19613779,0.32153907,-0.5886236,-0.8412965,3.2081907,-1.6207829,0.55566126,-2.2780688,0.37690976,0.35272133,0.71250963,-1.5416278,1.1112736,0.026403239,-0.6557761,1.094299,-1.0247883,-0.4803423,0.90798146,0.37836555,-0.5478441,0.41115013,-0.037018266,-0.2516416,-0.33087695,1.3952225,1.0423778,1.0876007,1.1290638,-1.3598366,-1.3450254,0.533225,-1.3216233,-0.513023,-2.0334294,0.09074393,0.9564212,-1.055554,0.24427158,-1.0228292,-0.30681217,-1.8921685,-0.84825546,1.6929394,-1.0139775,-1.6729985,-1.2261008,-1.0283601,0.003284912,0.18231058,-2.1462333,-0.6143616,-0.78915447,-0.37771323,-0.073541164,-1.5025517,0.02707987,0.2622486,-0.9966264,-0.12931122,2.2196734,2.080671,0.6188356,-1.7697409,1.0226294,0.5570338,-1.5297809,1.4284152,-0.37740317,-0.3438761,-0.42,0.9531238,-0.8143274,0.34197572,0.16896714,-0.33025995,1.0368208,-1.0599365,-1.4543947,-1.7970599,-0.44612965,1.2093719,1.5913357,-0.36848775,-0.4489394,-0.2043411,-0.94379973,-0.10765477,-1.6288291,0.3609356,-0.37090823,0.55960715,0.53555304,0.57103735,1.129616,-0.1576954,0.39712057,1.1424671,-0.10272339,0.22932287,-0.483914,-1.8608221,-1.6177958,1.7846407,2.1976573,0.34181437,-0.07042089,-1.0136616,1.7366843,1.6435164,0.52249444,-1.122242,-0.37595543,0.71741444,-0.5071052,-0.27225757,-0.09486735,-0.45794132,-0.2779062,-0.41209093,0.023364022,1.2151399,0.07051908,-2.0972278,0.6197934,0.61438197,-0.27864087,-0.2203333,-0.7338269,1.3339125,2.3423831,1.0210838,-1.4291862,-1.1776463,1.1360321,1.193251,0.22474532,1.451325,0.5407338,-1.2325912,2.0448425,-0.2905595,-0.46396863,1.71605,0.73783976,-2.0296943,1.6523924,0.59056246,1.4053072,-1.0774283,0.38367245,-0.30180827,-0.76008606,1.1269312,-0.6746196,0.36472952,-0.25497177,0.2054983,-0.47391355,0.4482248,-0.18204872,-0.6352732,-1.4516128,-1.5353655,1.3181218,-0.29022428,0.81483024,-0.91687065,1.2852796,0.7102948,-0.91418535,1.2670035,-0.98431253,0.06943491,0.7497508,0.83124083,-1.0229002,-0.057519432,-1.227632,-0.7672422,0.78063816,0.39992332,1.0133024,-1.2719091,1.0391294,-0.595264,-0.18754572,0.4189228,0.71492344,0.11059204,-1.6222535,-0.24543168,-0.85925096,-0.090146154,-0.5200327,0.28750202,1.2478081,-0.7656664,-1.2856193,-2.3705282,-0.065995105,1.5521151,0.51763463,1.4744285,0.019518433,-2.349787,-0.6127177,-0.29951876,-0.21209134,0.9190803,-0.34674704,0.19899185,-0.83253974,0.77198094,-0.82457286,1.0971051,1.1546386,0.9261256,1.1049749,-1.9690677,0.6253993,0.03797861,-2.0799334,-0.07983112,-1.7581935,-0.11803382,1.2866282,-0.85454637,-0.391543,-1.9691547,0.28517237,0.01618869,-1.2796639,-2.1919727,0.07206121,-1.7446367,2.0580065,0.023643529,-1.3558477,-0.31263235,-1.4356037,0.8263211,0.6208629,0.32786855,0.8266831,-2.4148457,0.25784203,0.89486414,0.9304858,0.8188751,-0.18967836,-0.9668133,0.12948948,1.6885858,-0.62197495,0.6937666,1.9983397,0.56045955,-0.09495873,-1.0856739,1.5287008,0.2334377,0.32664925,0.82022685,1.0947142,-1.4309751,0.6508288,-0.04150465,-0.58666945,-0.91038674,-1.4083776,-1.7015915,0.9798524,-2.0357625,0.24322636,0.85540205,0.8677924,-0.29320732,1.6709968,-0.37864232,0.035247963,-0.42247367,-0.54119724,0.6748004,0.7485239,-0.093480684,-0.40302193,-1.1243051,1.0197806,-0.08768594,0.56868434,-0.46778893,-0.6706483,1.0553545,0.8079873,0.304426,0.29367948,-0.2134613,1.2885221,0.34710515,-0.48658988,-0.7320449,0.111576885,0.45043793,0.41207692,-1.2447715,-0.26265222,0.91704375,1.680319,0.59867555,-1.9486681,0.19918407,-0.8502751,1.1783079,1.6242208,-0.6531031,0.29448682,-0.9702595,1.7471428,0.62665135,0.8565526,-1.1423973,0.3663813,-0.5219287,-0.7416648,0.012077533,0.20755534,-0.3621647,0.1791224,-0.57214284,1.277091,0.086641826,-1.3998055,-1.2146932,-1.3060788,1.1595702,1.121065,-0.87513477,-0.5461118,-0.208664,-0.25518808,0.13664375,0.19388644,-0.669481,-0.4879172,-0.16082235,0.086077325,0.91872495,-0.7746269,1.1148165,1.0878011,0.48559198,-0.78194183,-1.27293,-1.4596581,0.93205976,-0.109140076,-0.07085477,1.7051455,-1.1228558,1.320445,-0.021107899,0.904844,1.8703736,-0.9002741,0.20483272,0.039184626,-0.52428275,-1.2818164,-0.19113998,-0.34836778,-0.10113441,0.38279065,-0.86441994,1.1564568,0.4918261,0.79593176,-0.47606143,1.3459207,-0.24851026,0.5233703,0.9605033,0.5485112,0.39318153,1.0387586,0.004219473,-2.737336,1.718976,1.7074884,-0.44508776,-0.35023582,-1.0810274,-0.70890945,0.021422371,0.8021129,0.7284909,0.30970934,0.62859803,0.9999738,-0.40744734,-0.10892805,0.2828927,0.88162535,1.4261321,1.0236385,-0.3208536,-2.2959275,0.7427245,0.7625063,1.0478177,-5.11E-05,-0.00253348,1.004608,0.76455396,0.14795704,-0.27807435,-0.09211559,-0.3609042,0.06080423,0.8087337,-0.6364501,0.1547774,0.6869418,-0.5045289,-0.39224777,-1.2367753,0.06192607,-3.5173652,0.28288177,0.06513583,0.87368464,-1.3484278,1.2214233,-0.3107991,-1.360651,0.9968417,0.33510196,0.34050116,0.6097421,-0.6072483,0.35833415,-0.5092273,1.2036678,1.938239,0.086527795,-1.7451929,-0.52648145,-0.20585077,0.09436495,-0.0959355,0.774131,0.8164229,-0.44924298,-0.21083248,1.65368,0.60710734,0.041481767,-0.73276204,-0.092565924,0.25398043,0.011582593,-0.93468183,-0.5849109,-0.30954623,-1.7416493,-0.65544075,0.1589991,0.93554884,-1.0550413,-1.021326,2.3462715,-0.4507725,-1.9411775,-0.5409896,-1.6144439,-0.45255753,0.001590607,-1.0034835,-0.5127681,-1.3590337,-1.2406116,-0.38497865,-0.5524131,-0.33940053,-0.17572659,-1.3313966,0.5249028,0.8122904,-0.43224242,0.4275907,0.5599028,-1.1692476,0.052115846,0.59034187,-0.20645912,1.134102,1.2641394,0.7676274,-0.15734719,2.2443626,1.3167994,-0.679646,-0.3098232,-0.37124303,-0.22500442,-1.9070195,-1.3188181,-0.24258523,-0.73440194,-1.817595,1.77568,0.48570648,0.16844706,-0.95154476,-1.3724136,-0.4532154,-0.8003113,1.0501697,0.07111571,-1.2956394,0.6935978,1.6684898,-0.14482896,0.24532604,1.228326,-0.7943444,1.8472646,0.4359002,0.9269724,-0.920019,-0.8664606,-2.0217226,1.186221,-0.5939407,1.0739945,0.036211148,-1.8071369,0.028112212,2.1552358,0.615853,0.7573991,1.1417538,-2.4902143,0.5216941,0.83662266,0.5694873,-1.2225382,0.5447587,1.0573778,1.4987369,0.37817076,-0.011560506,1.2422361,0.072351776,1.0294899,-0.52423185,-0.7721252,-1.3876635,-0.1890759,1.6813082,-0.3639579,-0.69758034,0.21453102,0.45327532,-0.97777206,-0.4620377,0.27827683,0.20699549,-0.54211473,-0.14284576,0.9614699,-0.8041637,0.039061878,0.49576983,0.84631735,1.9727174,0.30125678,1.0696512,-0.3433229,-0.8837521,1.2530657,1.2168889,-1.7493411,2.9274848,0.1208284,1.2019676,0.9379236,0.1776188,-1.0393883,-2.0257666,0.4271953,-0.103610344,1.0036694,0.7987499,-0.089994945,-2.7637842,-1.8821507,0.2919299,0.023849377,2.0294354,-0.1704074,1.3051771,-0.58356553,-1.3315868,0.96626306,-0.77033967,2.0286996,0.62576807,-0.7967191,0.4640956,-0.6076386,-0.091595314,-1.5167509,-0.38075158,-0.7028954,-1.109874,-2.2481549,-0.44506195,0.5244308,-0.05546884,0.60866076,0.3052407,0.5813382,0.2406861,0.81914574,1.9075233,-0.29984438,0.8792708,-1.0353972,-0.818445,0.7802458,0.2785034,-1.1317381,-1.9286889,0.2720261,0.6053971,-1.4809752,-0.6106147,-0.8360786,-0.5365185,1.354188,0.70178604,-0.6272425,-0.26676384,-0.80384487,0.42251277,-1.7809297,-0.828599,0.33889636,0.97877175,-1.5771214,-0.58242685,-0.70158535,0.1733985,-0.17708026,-0.84927243,0.3357247,0.4285368,2.3052433,-0.25995028,1.2286714,0.68900365,1.5085807,0.4277366,0.2396429,-1.2652326,0.50650555,-0.83031106,-0.006268138,-1.2729977,-0.70666593,1.3625854,-0.7719154,0.10968027,0.16088887,-1.4961362,-2.2335703,0.14575659,0.24429075,-0.6603568,-1.3869034,0.28259024,0.3414193,-0.7755628,2.0906057,0.7378337,-0.9230721,0.39847878,-0.630238,0.34262952,0.3144028,-0.13547444,0.61157995,-0.43152368,1.3906752,2.7458274,0.21713954,0.5766831,-0.41740015,0.7161544,-0.58897024,-1.0187398,0.6816187,-1.2695563,1.3775557,-0.17787112,0.6840803,-0.14053546,-0.11783415,0.46552745,0.3540938,1.2056602,1.3957127,-0.6206401,-0.021536984,-1.0490106,-1.5670334,-0.837151,0.41739848,0.77986544,-0.14857155,1.7927033,-0.53874844,-1.8490239,-0.60043675,-0.31533736,1.6278462,-0.78349775,1.1097666,1.9613991,1.245273,0.42243686,-0.25452435,-0.34162688,1.9438515,0.8791833,-1.2583815,0.11084336,0.7079511,-1.1912435,0.17298643,-1.2158275,-0.5068552,0.4355278,0.1470822,-1.311839,-0.46186116,1.8080087,-0.5414596,-0.25911248,-0.69533247,-1.4780976,0.45646882,1.4234508,-0.870609,0.13510416,-0.93485236,-1.0958326,-0.88883585,0.9505256,-0.8994668,1.3737216,-0.67221886,0.69911027,1.1599697,1.530355,1.004855,-0.001149129
'retina',-0.62105316,0.068397,-0.13441466,-0.62878746,-0.77053,3.268013,-1.32212,0.4003264,-2.2975395,0.20079832,0.147088,0.8570929,-1.5813241,1.1160094,0.2204734,-0.75547653,1.2582436,-1.1122669,-0.6758687,0.7697031,0.24257062,-0.30901948,0.657142,-0.044052552,-0.14615422,-0.3294343,1.3435324,1.0460917,1.0395057,1.1814133,-1.1237912,-1.4521332,0.5707667,-1.5197622,-0.3065633,-1.73866,0.2301233,0.703773,-0.9735143,0.059613977,-1.0567979,-0.4354271,-1.9445907,-0.8200376,1.5060431,-1.0020806,-1.7745398,-1.2132193,-0.81511027,0.049276594,0.038033452,-2.3482118,-0.38950312,-0.8453689,-0.24702848,0.16211425,-1.1577436,0.2125838,0.31950724,-0.82964665,-0.16719562,2.3056834,2.040496,0.62951916,-1.7839247,1.0583576,0.72808295,-1.5152963,1.3662289,-0.43969226,-0.2434147,-0.44441307,0.7976661,-0.6736436,0.3287178,0.23495936,-0.36463842,0.5308893,-1.0022525,-1.4406337,-1.9024662,-0.3419439,1.3025723,1.5540209,-0.21553169,-0.3755375,-0.08312715,-1.1705986,-0.17674021,-1.57723,0.35161123,-0.17308879,0.29694632,0.4139973,0.7329278,1.3073169,-0.06425624,0.669838,1.1153125,-0.001668878,0.5107625,-0.5637817,-1.8212382,-1.6818467,1.6024,2.162982,0.3115414,-0.20087047,-1.1271381,1.775724,1.5879874,0.5941038,-1.3830749,-0.5298273,0.6162998,-0.4452964,-0.15134059,-0.16646895,-0.24077873,-0.30849603,-0.45961404,-0.1444841,0.9713442,0.051517803,-2.247997,0.568095,0.4760083,-0.1757875,-0.31495562,-0.97128963,1.2988127,2.4675496,0.8189691,-1.2339618,-0.9953566,1.1355134,1.1472092,0.059776653,1.3735145,0.59761715,-1.0053494,1.883987,-0.24503435,-0.40549552,1.6425309,0.8395159,-2.4464552,1.6704074,0.54947764,1.4152164,-1.1547669,0.52973515,-0.4412488,-0.6360756,1.0169355,-0.81663924,0.5510208,-0.26038182,0.22264515,-0.48664406,0.40768254,-0.12464704,-0.74363774,-1.4534012,-1.6751415,1.1856138,-0.4175786,0.7858307,-0.9445951,1.2520269,0.83644485,-0.91925865,1.51165,-0.86395526,-0.07169505,0.82458925,0.77059895,-1.1263775,-0.19766878,-1.2398953,-0.82820123,0.77707654,0.39989114,1.0872333,-1.4642271,1.0399088,-0.38960233,-0.33242705,0.34382007,0.67625976,0.109499,-1.6329452,-0.5096635,-0.84298706,0.100355506,-0.8087476,-0.06282573,0.86627436,-0.63571817,-1.2783319,-2.2262356,-0.25761083,1.5767518,0.5816319,1.3828865,-0.106395036,-2.4447274,-0.77603084,-0.23881711,-0.4038293,0.90632313,-0.38167846,0.26004836,-0.56045467,0.6881961,-0.66094446,1.0358403,1.1542454,1.0083761,1.2414962,-1.8651257,0.56417286,0.3102669,-1.7546288,-0.17258501,-1.8745613,0.22521959,1.191307,-0.5107475,-0.42510167,-1.9216471,0.08271176,-0.057013527,-1.2171497,-2.1433651,0.26060155,-1.8041748,2.081538,0.24949199,-1.231197,-0.22041082,-1.5366791,0.82493925,0.793139,0.29234445,0.78359085,-2.265756,0.20432524,0.9830832,0.898156,0.6778473,-0.4039761,-1.1837136,-0.003410449,1.721145,-0.32468164,0.74062246,2.0571845,0.7622306,-0.17861354,-1.1386195,1.5023752,0.12709218,0.3822403,0.8557582,1.1909257,-1.3490553,0.7276233,0.036363307,-0.7488536,-0.9759069,-1.5810161,-1.8865441,0.8860281,-1.9304123,0.2727569,0.5981219,0.8738103,-0.5513134,1.9423383,-0.43279764,0.15458006,-0.48427987,-0.63794255,0.5578389,0.53329587,-0.14550608,-0.61219925,-1.1157454,0.8382461,0.02341641,0.722162,-0.45351076,-0.47981504,0.76589847,0.7826119,0.28460133,0.04589965,-0.32912055,1.167534,0.09629469,-0.6325965,-0.6886874,-0.08338866,0.40097272,0.7833566,-1.1645974,-0.4150735,1.0090119,1.7136434,0.49100444,-1.8687029,-0.096129395,-1.0245019,1.3618631,1.7978321,-0.45344558,0.33879074,-0.9048267,1.7722212,0.36986682,0.91895556,-0.8807362,0.3423345,-0.39529645,-0.7095282,-0.07426441,0.17806982,-0.2545525,0.3285417,-0.6356694,1.2567388,0.2268432,-1.4978253,-1.2048491,-1.230923,1.0447112,0.9260917,-0.8786923,-0.16746388,-0.6280587,-0.23259902,0.17264141,0.03508911,-0.51330084,-0.51570934,0.00546872,-0.097321264,0.8657562,-0.93404055,1.0869333,1.1145381,0.5023102,-0.9288101,-1.2942145,-1.5031437,1.1173333,0.033799946,-0.09668553,1.9927646,-1.1031338,1.3880119,0.014014687,0.5410912,1.9357271,-0.67148304,0.20260382,0.1820224,-0.54602396,-1.3399888,-0.30648908,-0.35884228,0.07893836,0.4521079,-0.7928274,1.0216008,0.46220157,0.7245268,-0.5692754,1.1580706,-0.30632663,0.48726407,0.91628,0.5107451,0.34525132,0.7643798,0.09333105,-2.7077649,1.8609648,1.8047905,-0.1813479,-0.41302118,-1.0541817,-0.73301077,-0.21451126,0.82881886,0.55881697,0.5577984,0.63552684,1.0018452,-0.3810854,0.026030414,0.17620327,1.0554222,1.125269,0.9423718,-0.29966173,-2.1679022,0.7216309,0.9911433,1.0404689,-0.17229338,-0.183684,0.495494,0.92410225,0.24853253,-0.23758952,-0.13023612,-0.41700074,-0.07171042,0.6068724,-0.55960566,0.26480764,0.6243281,-0.3709961,0.000950025,-1.4420007,0.3609184,-3.4420328,0.28261235,-0.107838355,0.5786224,-1.1607279,0.8702889,-0.34237376,-1.4353079,1.0135773,0.18451935,0.19234902,0.6095138,-0.6547839,0.40013948,-0.31350878,1.266238,2.0069373,0.060771238,-1.6928135,-0.5508662,-0.33447137,0.13984872,0.040974144,0.9838586,0.9325741,-0.4746627,-0.2812353,1.6179146,0.47269425,0.32117832,-0.7445503,-0.3110118,0.09468386,0.24224041,-0.8364177,-0.761267,-0.23100667,-1.5556518,-0.5731353,0.31051365,0.98852557,-1.0933424,-0.95343494,2.295823,-0.34026527,-1.9267043,-0.39224824,-1.5919958,-0.7072894,-0.21518616,-1.0699983,-0.62826985,-1.4089941,-1.3864876,-0.3837819,-0.32080662,-0.50149846,-0.49003574,-1.4172527,0.47679618,0.9601577,-0.38251245,0.23591381,0.7062176,-1.2311864,0.08316093,0.7956795,0.17819946,1.0900757,1.0809561,0.9805577,0.044896852,2.0976439,1.0541425,-0.76136893,-0.34633955,-0.34326795,-0.3079473,-1.8325185,-1.3828101,-0.2877812,-0.6863673,-1.7843026,1.9435989,0.4750758,0.067564495,-0.7038948,-1.1174635,-0.5991578,-0.8874924,1.1164614,0.19297047,-1.2624143,0.6597798,1.475801,-0.32944766,0.38261297,1.21375,-0.8003047,1.9665924,0.43878508,1.020958,-0.87594557,-0.68042,-1.8345307,1.2783118,-0.34209862,0.8382121,0.19880085,-1.6042451,-0.07630282,2.0328612,0.7790703,0.7757194,1.0380833,-2.4969952,0.6271055,0.91614836,0.62659794,-1.2738782,0.48811236,1.3017985,1.7936965,0.4364533,-0.21243775,1.4393355,0.042599227,1.0441549,-0.55371886,-0.8567565,-1.1422273,-0.21217297,1.8065953,-0.0316945,-0.6741789,0.18066424,0.71901107,-1.2856606,-0.33114395,0.18919237,0.28239247,-0.7968065,-0.17631759,0.9961856,-0.7353191,0.11844946,0.6919775,0.7317009,2.0200694,0.11841035,1.030886,-0.2881104,-1.1179501,1.5335463,1.1508386,-1.5498443,2.8865163,0.18943352,1.3079811,1.1242598,0.055576723,-1.0006179,-1.9551306,0.4348271,-0.26181522,0.95629066,0.7973369,-0.008837021,-2.8772476,-1.9895148,0.4710748,0.025552062,1.9083809,-0.14819269,1.2847921,-0.62998694,-1.4793057,1.2145712,-0.9238186,2.1124954,0.4791008,-0.8899524,0.42313886,-0.6061333,-0.20563127,-1.4784456,-0.12984788,-0.5682781,-1.2214476,-2.0951793,-0.4179181,0.7790374,0.005363095,0.46276793,0.30557343,0.78128904,0.24753313,0.76911134,1.8015574,-0.13913816,0.71764773,-1.0181512,-0.77963233,0.79457504,0.12896135,-1.2531385,-1.6236285,0.031960595,0.8119299,-1.2259973,-0.38601616,-0.75814295,-0.5758969,1.4939817,0.58961195,-0.5825854,-0.02402529,-0.5885522,0.21025412,-1.6356369,-0.76557,0.30584338,1.0698582,-1.4165791,-0.53027207,-0.54965776,-0.029336607,-0.32284108,-0.7764233,0.6045351,0.38652226,2.300143,-0.20509766,1.5576268,0.4611784,1.4250933,0.5644341,0.113751344,-1.2361614,0.34172297,-0.94682366,-0.35792947,-1.3493572,-0.7773006,1.34491,-0.9011821,-0.1999306,0.12372049,-1.6585126,-2.3994596,0.2559155,0.25295767,-0.55498576,-1.3508414,0.152247,0.13464981,-0.7838788,2.2041607,0.8082796,-0.6598055,0.43470183,-0.73424155,0.33506536,0.45380864,0.024673581,0.38994882,-0.27313575,1.2052416,2.6319048,0.27700415,0.56651706,-0.32471547,0.7897775,-0.6874723,-1.1633774,0.6825414,-1.2271761,1.3645872,-0.2728239,0.56640536,-0.23574822,-0.0901776,0.505781,0.3596708,1.3936225,1.2599388,-0.53868335,-0.14074008,-1.142691,-1.5439533,-0.7439432,0.6546457,0.6414628,-0.037651468,1.811698,-0.5957718,-2.0730546,-0.5855128,-0.3233339,1.729279,-0.74537224,1.1446207,1.715948,1.169866,0.5946662,-0.117416,-0.3965818,1.6839114,0.9560563,-1.3029987,0.10891875,0.68788487,-1.1415023,0.17642201,-1.222705,-0.54801685,0.26957402,0.15676296,-1.4462038,-0.55562323,1.7594051,-0.45483616,-0.12662639,-0.8337381,-1.3949813,0.4417521,1.4993825,-0.8460178,0.18682285,-0.9252092,-1.0375246,-0.78057957,0.84909314,-0.92446417,1.2971917,-0.64922005,0.8427333,1.1893386,1.6574799,0.95235753,-0.001461159
'segmentasi',-0.7333147,0.20671785,0.2061383,-0.6406327,-0.82152957,3.260189,-1.592111,0.5578979,-2.3288128,0.38447365,0.40096554,0.6585973,-1.5220865,1.0885714,0.05878797,-0.68936795,1.1112027,-0.9936554,-0.47879407,0.8596793,0.36300388,-0.50004536,0.4200058,-0.048769902,-0.2949234,-0.3305266,1.3563296,1.0338279,1.0689939,1.1271324,-1.2793792,-1.4169749,0.51200694,-1.3294994,-0.4430752,-1.971393,0.10912431,0.9476474,-1.0768865,0.17815708,-1.0433861,-0.30610335,-1.9204572,-0.845146,1.7686262,-1.0027137,-1.7058512,-1.2588863,-1.0819182,-0.015160442,0.15215214,-2.2184227,-0.5904571,-0.7855864,-0.38521472,-0.03805311,-1.4402062,0.016547492,0.24915797,-0.94852215,-0.13400118,2.1554642,2.0454762,0.6050498,-1.6615394,0.9716024,0.5516316,-1.5228988,1.4667788,-0.399285,-0.3884116,-0.50326693,0.9569922,-0.83172894,0.2510052,0.18649364,-0.3060665,0.97542715,-1.0691237,-1.3516912,-1.8429022,-0.47443664,1.2290322,1.6020142,-0.40981328,-0.4644029,-0.1420601,-0.9669439,-0.06661094,-1.5760641,0.38927126,-0.3128558,0.5219681,0.53635085,0.5793501,1.1223546,-0.20238934,0.40127954,1.0908242,-0.015462689,0.1848497,-0.44300377,-1.8379294,-1.6827279,1.7967044,2.2251353,0.36239842,-0.07674755,-1.0466774,1.8550023,1.6571894,0.5890799,-1.1346256,-0.40661684,0.7286276,-0.4686011,-0.26986262,-0.03809871,-0.45285133,-0.30793387,-0.44720864,-0.007369732,1.2368317,0.05841591,-2.1285203,0.63907176,0.5772867,-0.2614602,-0.24367654,-0.7985652,1.3839773,2.3175616,0.95977545,-1.406002,-1.1824435,1.1544703,1.1554686,0.19201885,1.4709541,0.51864433,-1.1467203,1.9699091,-0.32223117,-0.5013732,1.75253,0.76634246,-2.0296743,1.7201992,0.5819884,1.386506,-1.1073827,0.42387393,-0.40627512,-0.7302208,1.1245166,-0.69752026,0.32788822,-0.2901912,0.19990563,-0.44387594,0.42083907,-0.17137855,-0.6375987,-1.3724017,-1.5874406,1.2584594,-0.3237487,0.7998082,-0.99014014,1.3332704,0.6948015,-0.9380552,1.2342582,-0.9258408,-0.007243756,0.71257496,0.8122694,-1.0453699,-0.050044447,-1.324134,-0.7120879,0.83781725,0.4696068,0.9818546,-1.2454861,1.099291,-0.5947723,-0.117061496,0.380587,0.67956424,0.08477619,-1.7263479,-0.24547952,-0.8764691,-0.003769958,-0.5818272,0.25576603,1.1490728,-0.6980355,-1.2838272,-2.3047569,-0.06515957,1.5448586,0.55478877,1.462832,0.052729815,-2.372794,-0.6139359,-0.28817225,-0.30130577,0.9942768,-0.3621303,0.1559205,-0.80162144,0.8527748,-0.7652347,1.0837103,1.1141764,0.95034987,1.0727524,-1.9580112,0.60808307,0.00456438,-1.9556156,-0.0296904,-1.7683606,-0.033496346,1.2202591,-0.847205,-0.35270974,-1.9661716,0.26521093,0.05768742,-1.3196434,-2.2034311,0.12358192,-1.7454516,2.049244,0.04127406,-1.2977178,-0.25586927,-1.416987,0.80605817,0.69355816,0.29310474,0.72947305,-2.4120173,0.2680364,1.0023872,0.85980195,0.82745355,-0.27979258,-0.9506877,0.09682547,1.6735002,-0.5690096,0.72132254,1.9973987,0.54292184,-0.18995903,-1.1022528,1.539646,0.20711996,0.37713635,0.83117676,1.1460941,-1.3929577,0.76082855,-0.02291693,-0.51917624,-0.8347109,-1.4583782,-1.7724142,0.9775719,-1.9757398,0.23321255,0.81653,0.90142184,-0.3221462,1.6679796,-0.4692386,0.048988204,-0.5289037,-0.6067516,0.6953864,0.7336615,-0.022246184,-0.44278112,-1.1585349,0.9602478,-0.055759925,0.5119329,-0.5294207,-0.68852687,0.98622483,0.7372804,0.362918,0.3134379,-0.1787739,1.2835382,0.20558514,-0.5018599,-0.75359774,-0.07248714,0.50238746,0.48240042,-1.184998,-0.28143606,0.8787327,1.5997047,0.6003961,-1.9250816,0.114755034,-0.88574654,1.2092862,1.6253122,-0.6102033,0.24673142,-1.0157267,1.7197486,0.60730237,0.8463993,-1.1168841,0.38264087,-0.51751816,-0.73047304,0.049546793,0.1825128,-0.3510959,0.21501385,-0.52141035,1.2431298,0.066624105,-1.3612328,-1.2531185,-1.3166771,1.1313254,1.1245533,-0.8560503,-0.48022604,-0.27728465,-0.23156627,0.13535976,0.15078925,-0.63228935,-0.47571954,-0.07465932,0.060968745,0.9266159,-0.7719257,1.0994397,1.0611979,0.41353378,-0.8297212,-1.2848668,-1.4614911,0.99117917,-0.091994025,-0.07442496,1.7504176,-1.0526255,1.2394959,-0.019455912,0.92169815,1.8798057,-0.95354414,0.19335334,0.043813433,-0.5380898,-1.2448736,-0.20784403,-0.26485574,-0.11919904,0.49235263,-0.86057955,1.1503693,0.534738,0.7424154,-0.4127581,1.3396457,-0.20793794,0.4853088,0.97755784,0.5115368,0.37921488,1.0663015,0.06231463,-2.7420123,1.6681169,1.80717,-0.33915293,-0.34553802,-0.99122506,-0.7325111,0.01932437,0.77292806,0.7124026,0.38213977,0.5983427,1.0309091,-0.44973186,-0.07678741,0.27610165,0.97841376,1.4144759,0.9716795,-0.2959919,-2.3221605,0.6293511,0.7616189,1.1015671,0.008153115,-0.03665926,0.99177146,0.79437894,0.118344605,-0.31891403,-0.11017954,-0.32240155,0.028104072,0.8161656,-0.6023314,0.25451636,0.7263591,-0.42197445,-0.3288503,-1.2637457,0.11971489,-3.5568447,0.21986961,0.0677942,0.8278243,-1.3222849,1.1437068,-0.23008971,-1.3744804,1.0445656,0.27257976,0.37348554,0.6006248,-0.6639116,0.35371163,-0.540734,1.2740062,1.950812,-0.013348485,-1.7906235,-0.4763259,-0.20686929,0.14043653,-0.15379976,0.8287441,0.81080866,-0.47341657,-0.2074546,1.6102496,0.64440536,0.030619303,-0.75855476,-0.08623869,0.24671586,0.004708412,-0.8706379,-0.6214495,-0.32078955,-1.7282237,-0.66886467,0.14130329,0.9063427,-1.0651482,-1.0246152,2.3148983,-0.4667085,-1.9029465,-0.54688627,-1.5055021,-0.45077386,0.0717786,-0.97878045,-0.6855734,-1.4034748,-1.2594913,-0.3226526,-0.5657507,-0.36197773,-0.2878311,-1.2846868,0.4864978,0.7899547,-0.4539547,0.40215123,0.61023635,-1.1936055,0.067510545,0.6373499,-0.21997935,1.0863177,1.2465426,0.80654496,-0.08494388,2.1874502,1.2711753,-0.66516274,-0.32942924,-0.40078282,-0.27015206,-1.938973,-1.3190966,-0.21901488,-0.76631993,-1.8027807,1.8257581,0.4439483,0.16433388,-0.980828,-1.2891701,-0.46823108,-0.80836695,1.0998882,0.12562248,-1.35137,0.6825535,1.6543617,-0.13038547,0.29478934,1.2458601,-0.8007922,1.861474,0.42842582,0.96226454,-0.9988389,-0.92569524,-2.0341249,1.1834639,-0.5736893,1.1218199,0.050848305,-1.7911571,0.062211994,2.2216508,0.59324527,0.80288845,1.1943413,-2.5769665,0.49111977,0.8041168,0.62680846,-1.2597724,0.5258678,1.1019157,1.5504489,0.39668474,-0.06379673,1.2038858,0.046222787,0.9896457,-0.6008104,-0.77150583,-1.3305693,-0.24171393,1.73131,-0.3067927,-0.7002292,0.10065233,0.4876338,-1.0156382,-0.40542516,0.31822166,0.23059027,-0.5824653,-0.1491398,0.974577,-0.732646,0.050057646,0.54423183,0.8307827,1.9945116,0.32080615,0.99535584,-0.43758404,-0.92205244,1.3356494,1.239325,-1.6779476,2.9234009,0.101124234,1.2123388,0.9443285,0.19696625,-1.0897218,-1.9709021,0.37073776,-0.16361208,1.0046057,0.7815319,-0.07746818,-2.800356,-1.8837858,0.3123249,0.1020836,2.0487373,-0.1828751,1.3030645,-0.5684158,-1.3501606,0.9843149,-0.7892153,2.0673363,0.6261317,-0.79916006,0.43214282,-0.59854484,-0.056671724,-1.5143143,-0.309274,-0.6147618,-1.1756568,-2.2350574,-0.39586797,0.48452055,-0.034042664,0.5870791,0.3709745,0.6033882,0.18304682,0.80594355,1.8916601,-0.3454806,0.8311567,-0.96333224,-0.8189258,0.9026606,0.2496692,-1.1359226,-1.9614369,0.2560185,0.66144204,-1.4684604,-0.6030604,-0.7927809,-0.54725856,1.3438853,0.7147767,-0.6428072,-0.1982917,-0.7750983,0.39111555,-1.7621521,-0.7853587,0.35442197,0.94168705,-1.5826789,-0.5382939,-0.73048836,0.14778705,-0.18365104,-0.80379915,0.38747206,0.43379286,2.2976456,-0.12995443,1.262291,0.71567196,1.4541329,0.4996051,0.16374241,-1.2381136,0.5329992,-0.85588783,-0.07354319,-1.2523637,-0.7512838,1.3625833,-0.76817137,0.05820797,0.23204684,-1.5344008,-2.1289868,0.19434822,0.23378222,-0.5978198,-1.3364996,0.36199412,0.33219078,-0.72556186,2.084039,0.7597356,-0.8583078,0.42637432,-0.5805726,0.30720305,0.3337662,-0.10260571,0.5162056,-0.32581064,1.32787,2.824133,0.27562127,0.65232867,-0.37600806,0.718906,-0.598848,-1.0255505,0.6488374,-1.2183934,1.3129224,-0.23951721,0.6454088,-0.16481806,-0.21010065,0.4372714,0.3815726,1.1936477,1.4488195,-0.581389,-0.019017592,-1.0071025,-1.5836129,-0.8565922,0.41222706,0.79529244,-0.12745912,1.7825156,-0.51698107,-1.9281812,-0.6579229,-0.3051302,1.6239713,-0.71918505,1.1063306,1.955135,1.2152777,0.41619372,-0.4155306,-0.3343737,1.9879361,0.8225417,-1.2207707,0.061887424,0.69416064,-1.2447896,0.12546624,-1.2648315,-0.57701176,0.32829583,0.12916894,-1.4679741,-0.4518354,1.8355943,-0.55371493,-0.2723615,-0.6535488,-1.5300983,0.4890801,1.4418265,-0.76404905,0.14213474,-0.8313126,-1.1511,-0.8190096,0.9098304,-0.8351564,1.3766584,-0.71039385,0.74782616,1.1755031,1.5366853,0.9770479,-0.001203729
'darah',-0.737003,0.20062368,0.25060838,-0.64101845,-0.81981725,3.2301636,-1.6096439,0.58616203,-2.2315996,0.36406493,0.33880594,0.69754857,-1.5172929,1.1489714,0.024159225,-0.6495042,1.0893208,-1.0160054,-0.5014508,0.9195125,0.35702577,-0.49477902,0.43795243,-0.037393544,-0.2614577,-0.24599703,1.3849026,1.0684538,1.0434796,1.1255485,-1.3153806,-1.3284067,0.4795154,-1.3536191,-0.53713316,-2.0202203,0.08275054,0.91440946,-0.9911578,0.29051074,-0.9361226,-0.24409352,-1.8904566,-0.8483855,1.6632179,-1.0313629,-1.6760101,-1.202365,-1.0242121,-0.015407476,0.15088613,-2.1530056,-0.60410374,-0.7780861,-0.37327603,-0.07263704,-1.4734358,0.03268993,0.2343918,-1.0157957,-0.08555009,2.1977024,2.040338,0.5769274,-1.808118,1.043073,0.5687122,-1.5077618,1.4409851,-0.38457403,-0.32054213,-0.44561586,0.95704985,-0.84567714,0.37074876,0.21343918,-0.30362222,0.9699901,-1.0018896,-1.4577643,-1.7334863,-0.4558176,1.2301615,1.5182034,-0.35341284,-0.42970014,-0.19652693,-0.9610634,-0.10862886,-1.5753183,0.32666528,-0.35910225,0.5444457,0.49190173,0.6101636,1.1106476,-0.16368519,0.3690743,1.1117889,-0.101224504,0.18700337,-0.52084833,-1.8561339,-1.5837749,1.8087626,2.202766,0.35689986,-0.032167297,-1.0036505,1.7781531,1.656216,0.5215261,-1.1750163,-0.34513244,0.7295559,-0.48683718,-0.3329885,-0.12784624,-0.43921003,-0.25144184,-0.37233663,0.052851934,1.1937774,0.070975214,-2.0786076,0.6136513,0.6086386,-0.26413286,-0.24667346,-0.74938387,1.3310021,2.3338683,1.0008122,-1.4068667,-1.238722,1.1603321,1.1856447,0.2602017,1.4403172,0.5364437,-1.2569989,2.002055,-0.27180693,-0.49553922,1.755352,0.74935657,-2.0763023,1.6543431,0.64435905,1.4283456,-1.1035912,0.36770082,-0.2964192,-0.7806758,1.1275308,-0.69875354,0.3689138,-0.24318011,0.19623268,-0.50353795,0.43782797,-0.16216506,-0.6011714,-1.3859197,-1.5197525,1.3268532,-0.2979226,0.7862628,-0.8881267,1.28926,0.738583,-0.90662056,1.3044132,-0.9672255,0.000799003,0.796318,0.8369717,-1.0624701,-0.038684644,-1.165285,-0.7926752,0.7462172,0.4134024,1.0332828,-1.3161343,1.0229156,-0.59636855,-0.20114422,0.45392537,0.71041995,0.117688775,-1.657777,-0.26163507,-0.83555,-0.08522599,-0.50151664,0.29333818,1.2679069,-0.7641249,-1.3247497,-2.3821433,-0.023229232,1.5851636,0.56134295,1.4363023,-0.015323639,-2.3600738,-0.596392,-0.30020738,-0.21108504,0.96827334,-0.34839353,0.19292165,-0.8370994,0.7128913,-0.83255154,1.0096087,1.1334605,0.9099621,1.0666806,-1.9590813,0.6030989,0.025750456,-2.1070313,-0.06689134,-1.7325155,-0.12151414,1.2900699,-0.8489441,-0.39998326,-1.9716214,0.30826208,0.06697923,-1.2020725,-2.1590612,0.05077784,-1.7720793,2.093846,0.03482191,-1.3269835,-0.2704213,-1.4396458,0.8925782,0.6121106,0.3453004,0.8497393,-2.4310591,0.2562319,0.862048,0.95401555,0.81594247,-0.18798156,-1.0084405,0.122793466,1.699122,-0.66757554,0.6710338,2.0264559,0.569658,-0.08440214,-1.0793611,1.480569,0.21055184,0.32816857,0.8350994,1.1212853,-1.4750462,0.6235208,-0.041520998,-0.60255414,-0.92053586,-1.380797,-1.6826202,0.9348242,-2.0540822,0.24528581,0.87243634,0.86665916,-0.28533188,1.6382012,-0.45001712,0.09245505,-0.48200378,-0.5167109,0.66896325,0.7207797,-0.086859696,-0.41733286,-1.1227385,0.9852261,-0.15121232,0.6057424,-0.49196425,-0.67500997,1.0245613,0.7907385,0.33214903,0.22699909,-0.2508831,1.2939163,0.3996849,-0.52105945,-0.72892284,0.15802476,0.4346881,0.3971536,-1.2661191,-0.24820922,0.98620707,1.7093977,0.538075,-1.938512,0.20504434,-0.91116756,1.1598341,1.5782264,-0.6365536,0.3168265,-0.9909149,1.7760957,0.5982885,0.88168764,-1.1538205,0.38511667,-0.5474263,-0.7262476,0.03380524,0.20056772,-0.3824234,0.19933362,-0.573257,1.2764801,0.10414091,-1.4448541,-1.2795645,-1.2991017,1.1132898,1.1096148,-0.8710206,-0.50941557,-0.28182098,-0.29153123,0.15776072,0.18213548,-0.6413465,-0.53548646,-0.19865854,0.14460084,0.87715775,-0.7565999,1.109088,1.1027721,0.48075673,-0.8076475,-1.2724131,-1.4375652,0.9422631,-0.10641506,-0.0757029,1.7082819,-1.1347183,1.3160931,0.001466237,0.93437093,1.9131317,-0.82061833,0.20666295,0.02901105,-0.5028363,-1.2671986,-0.19471073,-0.38827464,-0.10967558,0.37365142,-0.9208738,1.1881486,0.4404563,0.76718813,-0.45944607,1.3465309,-0.22265433,0.5230205,0.9609987,0.55864763,0.4090747,1.0598541,0.03629331,-2.7194898,1.7295185,1.7426472,-0.46370867,-0.35923028,-1.0717673,-0.66270995,0.029335907,0.8309033,0.78167725,0.29846516,0.6712425,0.99919343,-0.37607253,-0.1443984,0.27187914,0.8602684,1.3991247,1.0284652,-0.31558928,-2.3028157,0.7135388,0.776357,1.0434146,0.039256345,-0.020069236,0.9828411,0.7894601,0.17210801,-0.36452475,-0.07772446,-0.40817797,0.05029625,0.8191158,-0.6433874,0.17598109,0.70253944,-0.5321999,-0.37709665,-1.2295862,0.093875684,-3.5197265,0.26725847,0.069809996,0.87776214,-1.2929393,1.2099413,-0.2948746,-1.3700762,0.9901784,0.29632115,0.30664405,0.60074455,-0.61384946,0.33777216,-0.5450683,1.185818,1.9373726,0.05700328,-1.7650629,-0.48926446,-0.1837684,0.08858784,-0.055067074,0.79395324,0.8495583,-0.45346153,-0.20119745,1.6800519,0.5584094,0.08234773,-0.7531875,-0.11952705,0.2506851,0.004053121,-0.9606733,-0.59074163,-0.3025593,-1.7700812,-0.68445826,0.18802369,0.94088715,-1.014618,-0.9817629,2.3164396,-0.45537472,-1.9176565,-0.547594,-1.6278634,-0.43856654,-0.011815955,-1.0191014,-0.47932687,-1.3436517,-1.2587422,-0.3643668,-0.5336713,-0.3491583,-0.1770556,-1.2921284,0.5121363,0.80913544,-0.4496056,0.38312614,0.5649622,-1.1823689,0.035990167,0.63744146,-0.19050582,1.2278174,1.3365741,0.75999564,-0.12838408,2.2437394,1.2330965,-0.65184164,-0.2721491,-0.37672135,-0.2713841,-1.9965159,-1.2775668,-0.22241734,-0.72360736,-1.7877165,1.8014445,0.39254382,0.1627175,-0.9413209,-1.4207269,-0.49454653,-0.79837006,1.0635715,0.06569981,-1.3486782,0.6815583,1.6860348,-0.14228304,0.24136333,1.1451675,-0.7722762,1.8950583,0.47781458,0.9383605,-0.95057577,-0.87711793,-1.9833055,1.2036905,-0.5894864,1.1194621,0.001252629,-1.8034362,0.00610129,2.1779459,0.5683515,0.7580771,1.0928745,-2.4558895,0.55332303,0.8233562,0.6191502,-1.1948785,0.5107749,1.0337871,1.5024147,0.34416822,-0.01845131,1.2123499,0.06921085,1.0487517,-0.5571044,-0.8037112,-1.4247609,-0.2036614,1.7454232,-0.3248829,-0.7197099,0.22396655,0.44215128,-0.99038917,-0.47529137,0.29553646,0.2409818,-0.5312982,-0.1124244,0.9302614,-0.8214528,0.018761525,0.4736489,0.86932606,2.0321946,0.3261506,1.0184181,-0.35172868,-0.87189144,1.2470199,1.2227892,-1.7099777,2.9127467,0.09201241,1.1967028,0.97276276,0.17880583,-1.0496238,-2.1073415,0.45988163,-0.02092555,1.0141214,0.790385,-0.055035904,-2.7027385,-1.871842,0.28559402,0.002414899,2.0504837,-0.17088795,1.3191453,-0.54784167,-1.3363606,1.0047146,-0.77857447,2.0024242,0.6367075,-0.7459171,0.44374517,-0.62157923,-0.16026722,-1.5259959,-0.43533087,-0.72849804,-1.1666201,-2.271406,-0.39247727,0.5565702,-0.061943937,0.59411174,0.2758474,0.58604074,0.25520143,0.7953382,1.9150394,-0.23881088,0.8838086,-1.0450834,-0.79839104,0.7749272,0.28566685,-1.1071955,-1.89432,0.22703855,0.6543529,-1.45931,-0.56236637,-0.80097693,-0.50871706,1.3564011,0.7077748,-0.60704225,-0.29153532,-0.74365634,0.36100188,-1.7329313,-0.8306613,0.3526561,1.0023876,-1.6246141,-0.57866555,-0.7405301,0.17762513,-0.20044577,-0.8673129,0.35619906,0.41396716,2.3165796,-0.23695229,1.1854931,0.6913254,1.483469,0.4222611,0.2661498,-1.2825922,0.47398505,-0.8643331,-0.023816079,-1.2417334,-0.6823637,1.3843712,-0.8121206,0.12640075,0.16232805,-1.4854065,-2.2283192,0.13155578,0.24802701,-0.7346144,-1.4242953,0.2859796,0.3320483,-0.7507944,2.0695536,0.7371848,-0.87800974,0.45222118,-0.6331546,0.34814727,0.31957412,-0.13775973,0.5592859,-0.44849095,1.3443681,2.7377279,0.18200636,0.57009745,-0.42222905,0.71903086,-0.56327367,-1.055015,0.71789736,-1.291901,1.3954829,-0.20336485,0.7143522,-0.1185168,-0.09754539,0.45640627,0.30840728,1.2533174,1.4321371,-0.6181436,-0.028898,-1.0485014,-1.5487515,-0.82663184,0.4619232,0.8167057,-0.12753545,1.7921658,-0.5129271,-1.822361,-0.6178237,-0.33853486,1.6441909,-0.79805785,1.129275,1.9690489,1.3026899,0.3422602,-0.2619461,-0.38812208,1.906397,0.8388769,-1.2462492,0.118122466,0.73844904,-1.2128496,0.19168986,-1.2050809,-0.49118853,0.39483666,0.11631637,-1.3353581,-0.47029963,1.8075918,-0.5494171,-0.26457974,-0.6834865,-1.5070089,0.514071,1.4200445,-0.9217282,0.17117643,-0.96850634,-1.1434904,-0.82645017,0.8878624,-0.88016385,1.3831323,-0.706475,0.6918723,1.1807336,1.5155748,0.9636817,-0.001195303
'retina',-0.62105316,0.068397,-0.13441466,-0.62878746,-0.77053,3.268013,-1.32212,0.4003264,-2.2975395,0.20079832,0.147088,0.8570929,-1.5813241,1.1160094,0.2204734,-0.75547653,1.2582436,-1.1122669,-0.6758687,0.7697031,0.24257062,-0.30901948,0.657142,-0.044052552,-0.14615422,-0.3294343,1.3435324,1.0460917,1.0395057,1.1814133,-1.1237912,-1.4521332,0.5707667,-1.5197622,-0.3065633,-1.73866,0.2301233,0.703773,-0.9735143,0.059613977,-1.0567979,-0.4354271,-1.9445907,-0.8200376,1.5060431,-1.0020806,-1.7745398,-1.2132193,-0.81511027,0.049276594,0.038033452,-2.3482118,-0.38950312,-0.8453689,-0.24702848,0.16211425,-1.1577436,0.2125838,0.31950724,-0.82964665,-0.16719562,2.3056834,2.040496,0.62951916,-1.7839247,1.0583576,0.72808295,-1.5152963,1.3662289,-0.43969226,-0.2434147,-0.44441307,0.7976661,-0.6736436,0.3287178,0.23495936,-0.36463842,0.5308893,-1.0022525,-1.4406337,-1.9024662,-0.3419439,1.3025723,1.5540209,-0.21553169,-0.3755375,-0.08312715,-1.1705986,-0.17674021,-1.57723,0.35161123,-0.17308879,0.29694632,0.4139973,0.7329278,1.3073169,-0.06425624,0.669838,1.1153125,-0.001668878,0.5107625,-0.5637817,-1.8212382,-1.6818467,1.6024,2.162982,0.3115414,-0.20087047,-1.1271381,1.775724,1.5879874,0.5941038,-1.3830749,-0.5298273,0.6162998,-0.4452964,-0.15134059,-0.16646895,-0.24077873,-0.30849603,-0.45961404,-0.1444841,0.9713442,0.051517803,-2.247997,0.568095,0.4760083,-0.1757875,-0.31495562,-0.97128963,1.2988127,2.4675496,0.8189691,-1.2339618,-0.9953566,1.1355134,1.1472092,0.059776653,1.3735145,0.59761715,-1.0053494,1.883987,-0.24503435,-0.40549552,1.6425309,0.8395159,-2.4464552,1.6704074,0.54947764,1.4152164,-1.1547669,0.52973515,-0.4412488,-0.6360756,1.0169355,-0.81663924,0.5510208,-0.26038182,0.22264515,-0.48664406,0.40768254,-0.12464704,-0.74363774,-1.4534012,-1.6751415,1.1856138,-0.4175786,0.7858307,-0.9445951,1.2520269,0.83644485,-0.91925865,1.51165,-0.86395526,-0.07169505,0.82458925,0.77059895,-1.1263775,-0.19766878,-1.2398953,-0.82820123,0.77707654,0.39989114,1.0872333,-1.4642271,1.0399088,-0.38960233,-0.33242705,0.34382007,0.67625976,0.109499,-1.6329452,-0.5096635,-0.84298706,0.100355506,-0.8087476,-0.06282573,0.86627436,-0.63571817,-1.2783319,-2.2262356,-0.25761083,1.5767518,0.5816319,1.3828865,-0.106395036,-2.4447274,-0.77603084,-0.23881711,-0.4038293,0.90632313,-0.38167846,0.26004836,-0.56045467,0.6881961,-0.66094446,1.0358403,1.1542454,1.0083761,1.2414962,-1.8651257,0.56417286,0.3102669,-1.7546288,-0.17258501,-1.8745613,0.22521959,1.191307,-0.5107475,-0.42510167,-1.9216471,0.08271176,-0.057013527,-1.2171497,-2.1433651,0.26060155,-1.8041748,2.081538,0.24949199,-1.231197,-0.22041082,-1.5366791,0.82493925,0.793139,0.29234445,0.78359085,-2.265756,0.20432524,0.9830832,0.898156,0.6778473,-0.4039761,-1.1837136,-0.003410449,1.721145,-0.32468164,0.74062246,2.0571845,0.7622306,-0.17861354,-1.1386195,1.5023752,0.12709218,0.3822403,0.8557582,1.1909257,-1.3490553,0.7276233,0.036363307,-0.7488536,-0.9759069,-1.5810161,-1.8865441,0.8860281,-1.9304123,0.2727569,0.5981219,0.8738103,-0.5513134,1.9423383,-0.43279764,0.15458006,-0.48427987,-0.63794255,0.5578389,0.53329587,-0.14550608,-0.61219925,-1.1157454,0.8382461,0.02341641,0.722162,-0.45351076,-0.47981504,0.76589847,0.7826119,0.28460133,0.04589965,-0.32912055,1.167534,0.09629469,-0.6325965,-0.6886874,-0.08338866,0.40097272,0.7833566,-1.1645974,-0.4150735,1.0090119,1.7136434,0.49100444,-1.8687029,-0.096129395,-1.0245019,1.3618631,1.7978321,-0.45344558,0.33879074,-0.9048267,1.7722212,0.36986682,0.91895556,-0.8807362,0.3423345,-0.39529645,-0.7095282,-0.07426441,0.17806982,-0.2545525,0.3285417,-0.6356694,1.2567388,0.2268432,-1.4978253,-1.2048491,-1.230923,1.0447112,0.9260917,-0.8786923,-0.16746388,-0.6280587,-0.23259902,0.17264141,0.03508911,-0.51330084,-0.51570934,0.00546872,-0.097321264,0.8657562,-0.93404055,1.0869333,1.1145381,0.5023102,-0.9288101,-1.2942145,-1.5031437,1.1173333,0.033799946,-0.09668553,1.9927646,-1.1031338,1.3880119,0.014014687,0.5410912,1.9357271,-0.67148304,0.20260382,0.1820224,-0.54602396,-1.3399888,-0.30648908,-0.35884228,0.07893836,0.4521079,-0.7928274,1.0216008,0.46220157,0.7245268,-0.5692754,1.1580706,-0.30632663,0.48726407,0.91628,0.5107451,0.34525132,0.7643798,0.09333105,-2.7077649,1.8609648,1.8047905,-0.1813479,-0.41302118,-1.0541817,-0.73301077,-0.21451126,0.82881886,0.55881697,0.5577984,0.63552684,1.0018452,-0.3810854,0.026030414,0.17620327,1.0554222,1.125269,0.9423718,-0.29966173,-2.1679022,0.7216309,0.9911433,1.0404689,-0.17229338,-0.183684,0.495494,0.92410225,0.24853253,-0.23758952,-0.13023612,-0.41700074,-0.07171042,0.6068724,-0.55960566,0.26480764,0.6243281,-0.3709961,0.000950025,-1.4420007,0.3609184,-3.4420328,0.28261235,-0.107838355,0.5786224,-1.1607279,0.8702889,-0.34237376,-1.4353079,1.0135773,0.18451935,0.19234902,0.6095138,-0.6547839,0.40013948,-0.31350878,1.266238,2.0069373,0.060771238,-1.6928135,-0.5508662,-0.33447137,0.13984872,0.040974144,0.9838586,0.9325741,-0.4746627,-0.2812353,1.6179146,0.47269425,0.32117832,-0.7445503,-0.3110118,0.09468386,0.24224041,-0.8364177,-0.761267,-0.23100667,-1.5556518,-0.5731353,0.31051365,0.98852557,-1.0933424,-0.95343494,2.295823,-0.34026527,-1.9267043,-0.39224824,-1.5919958,-0.7072894,-0.21518616,-1.0699983,-0.62826985,-1.4089941,-1.3864876,-0.3837819,-0.32080662,-0.50149846,-0.49003574,-1.4172527,0.47679618,0.9601577,-0.38251245,0.23591381,0.7062176,-1.2311864,0.08316093,0.7956795,0.17819946,1.0900757,1.0809561,0.9805577,0.044896852,2.0976439,1.0541425,-0.76136893,-0.34633955,-0.34326795,-0.3079473,-1.8325185,-1.3828101,-0.2877812,-0.6863673,-1.7843026,1.9435989,0.4750758,0.067564495,-0.7038948,-1.1174635,-0.5991578,-0.8874924,1.1164614,0.19297047,-1.2624143,0.6597798,1.475801,-0.32944766,0.38261297,1.21375,-0.8003047,1.9665924,0.43878508,1.020958,-0.87594557,-0.68042,-1.8345307,1.2783118,-0.34209862,0.8382121,0.19880085,-1.6042451,-0.07630282,2.0328612,0.7790703,0.7757194,1.0380833,-2.4969952,0.6271055,0.91614836,0.62659794,-1.2738782,0.48811236,1.3017985,1.7936965,0.4364533,-0.21243775,1.4393355,0.042599227,1.0441549,-0.55371886,-0.8567565,-1.1422273,-0.21217297,1.8065953,-0.0316945,-0.6741789,0.18066424,0.71901107,-1.2856606,-0.33114395,0.18919237,0.28239247,-0.7968065,-0.17631759,0.9961856,-0.7353191,0.11844946,0.6919775,0.7317009,2.0200694,0.11841035,1.030886,-0.2881104,-1.1179501,1.5335463,1.1508386,-1.5498443,2.8865163,0.18943352,1.3079811,1.1242598,0.055576723,-1.0006179,-1.9551306,0.4348271,-0.26181522,0.95629066,0.7973369,-0.008837021,-2.8772476,-1.9895148,0.4710748,0.025552062,1.9083809,-0.14819269,1.2847921,-0.62998694,-1.4793057,1.2145712,-0.9238186,2.1124954,0.4791008,-0.8899524,0.42313886,-0.6061333,-0.20563127,-1.4784456,-0.12984788,-0.5682781,-1.2214476,-2.0951793,-0.4179181,0.7790374,0.005363095,0.46276793,0.30557343,0.78128904,0.24753313,0.76911134,1.8015574,-0.13913816,0.71764773,-1.0181512,-0.77963233,0.79457504,0.12896135,-1.2531385,-1.6236285,0.031960595,0.8119299,-1.2259973,-0.38601616,-0.75814295,-0.5758969,1.4939817,0.58961195,-0.5825854,-0.02402529,-0.5885522,0.21025412,-1.6356369,-0.76557,0.30584338,1.0698582,-1.4165791,-0.53027207,-0.54965776,-0.029336607,-0.32284108,-0.7764233,0.6045351,0.38652226,2.300143,-0.20509766,1.5576268,0.4611784,1.4250933,0.5644341,0.113751344,-1.2361614,0.34172297,-0.94682366,-0.35792947,-1.3493572,-0.7773006,1.34491,-0.9011821,-0.1999306,0.12372049,-1.6585126,-2.3994596,0.2559155,0.25295767,-0.55498576,-1.3508414,0.152247,0.13464981,-0.7838788,2.2041607,0.8082796,-0.6598055,0.43470183,-0.73424155,0.33506536,0.45380864,0.024673581,0.38994882,-0.27313575,1.2052416,2.6319048,0.27700415,0.56651706,-0.32471547,0.7897775,-0.6874723,-1.1633774,0.6825414,-1.2271761,1.3645872,-0.2728239,0.56640536,-0.23574822,-0.0901776,0.505781,0.3596708,1.3936225,1.2599388,-0.53868335,-0.14074008,-1.142691,-1.5439533,-0.7439432,0.6546457,0.6414628,-0.037651468,1.811698,-0.5957718,-2.0730546,-0.5855128,-0.3233339,1.729279,-0.74537224,1.1446207,1.715948,1.169866,0.5946662,-0.117416,-0.3965818,1.6839114,0.9560563,-1.3029987,0.10891875,0.68788487,-1.1415023,0.17642201,-1.222705,-0.54801685,0.26957402,0.15676296,-1.4462038,-0.55562323,1.7594051,-0.45483616,-0.12662639,-0.8337381,-1.3949813,0.4417521,1.4993825,-0.8460178,0.18682285,-0.9252092,-1.0375246,-0.78057957,0.84909314,-0.92446417,1.2971917,-0.64922005,0.8427333,1.1893386,1.6574799,0.95235753,-0.001461159
'deteksi',-0.76776856,0.15825473,0.2402822,-0.679863,-0.8543727,3.3159778,-1.6088618,0.57391685,-2.3346584,0.3120341,0.34158373,0.7165742,-1.5222934,1.1349285,-0.009352572,-0.71522856,1.1192007,-1.0101501,-0.49908173,0.89095455,0.3974388,-0.43729973,0.47996065,0.007177996,-0.27449846,-0.27316302,1.4569436,0.9360862,1.0480521,1.1387167,-1.1358129,-1.2201132,0.54034317,-1.255293,-0.56107706,-1.9740366,0.1197961,0.9428849,-0.99798757,0.32979602,-1.0454742,-0.22077213,-1.8830148,-0.833641,1.8295193,-1.0210124,-1.7763858,-1.335833,-0.9951849,0.028266765,0.15081151,-2.2612896,-0.6103324,-0.76380587,-0.33495948,0.047657598,-1.501088,0.014310013,0.14464629,-0.93103504,-0.0771387,2.179631,2.094683,0.6835939,-1.808801,1.0560101,0.6131311,-1.657848,1.43641,-0.3287639,-0.31526783,-0.42760873,0.89835405,-0.7864399,0.30223286,0.17971359,-0.3798318,1.0373998,-1.1205292,-1.4321266,-1.7997618,-0.4829724,1.220549,1.5893358,-0.3434414,-0.4798366,-0.23112977,-0.86474633,-0.18004803,-1.5558778,0.40901232,-0.2932444,0.4777722,0.53505695,0.5478143,1.0639199,-0.29749644,0.4039258,1.0699426,-0.030032115,0.18088658,-0.43402526,-1.7230197,-1.5298518,1.7982198,2.2110722,0.3521442,-0.14992766,-1.0483074,1.7282366,1.5960981,0.5073256,-1.1921352,-0.3845396,0.65713876,-0.48825082,-0.3637681,-0.12097323,-0.37202442,-0.27743033,-0.4208788,-0.062188167,1.1866077,-0.008986254,-2.1231482,0.6658489,0.5529081,-0.22642244,-0.23914705,-0.80911094,1.4023019,2.2228255,0.9969147,-1.3596392,-1.184503,1.1090567,1.1845468,0.15579541,1.5055846,0.6261801,-1.2057258,1.9589725,-0.2985071,-0.47823963,1.7655824,0.7778303,-2.038585,1.7342469,0.5810275,1.3112956,-1.1314402,0.4377173,-0.40702152,-0.7937376,1.0491706,-0.8174873,0.43953517,-0.21198954,0.254112,-0.5353597,0.45735505,-0.12019841,-0.72813684,-1.2689723,-1.5242497,1.2590672,-0.22662465,0.794128,-0.8624673,1.3148252,0.7701337,-0.8846684,1.3430843,-0.8997307,0.016066441,0.81673497,0.84499174,-1.0449729,0.031382855,-1.2160331,-0.7204707,0.76434666,0.40837824,0.89892036,-1.2667891,1.0296211,-0.56614834,-0.170627,0.40996072,0.7679968,0.03779496,-1.7041545,-0.2514638,-0.9459836,-0.09470249,-0.56099445,0.25176755,1.1388763,-0.76288366,-1.2939292,-2.2620745,-0.012409561,1.5838156,0.5116649,1.4301023,-0.035957888,-2.4160907,-0.6784846,-0.3513049,-0.25137642,1.0426637,-0.3633571,0.14361484,-0.7468931,0.7404267,-0.8011553,1.0997901,1.1676307,0.99931836,0.9872462,-1.9530417,0.5768445,-0.051522244,-2.0104923,-0.008510862,-1.754858,-0.075579606,1.2479464,-0.8433389,-0.37109113,-1.930406,0.2617034,0.020701282,-1.3652939,-2.18447,-0.062394425,-1.7546678,1.9803001,0.05070162,-1.3935221,-0.29490528,-1.3222643,0.79874516,0.699048,0.44433537,0.89241195,-2.4644563,0.17634535,0.89866227,0.99034333,0.84744024,-0.1883691,-0.9357794,0.14409071,1.7454234,-0.62190145,0.7212348,2.0028675,0.5591659,-0.064746834,-1.078905,1.4363462,0.12945674,0.30782637,0.7944565,1.1638452,-1.3390185,0.815188,-0.08538688,-0.4671056,-0.960087,-1.4148955,-1.7169746,0.8906185,-1.9948696,0.19015408,0.8996449,0.9203062,-0.30927217,1.5891656,-0.41812006,0.094323814,-0.56434166,-0.5574068,0.5021115,0.6906657,-0.18292367,-0.4361806,-1.1782621,0.96920615,-0.0853282,0.5443094,-0.57405573,-0.6744446,0.98417956,0.7822413,0.28431538,0.35212132,-0.2280231,1.2015792,0.3003166,-0.44360903,-0.8584547,0.035416257,0.5022108,0.5054394,-1.1182753,-0.26293793,0.9397653,1.5999728,0.54405993,-1.946735,0.124999665,-0.95543146,1.1831678,1.6549596,-0.5795324,0.2928997,-0.9893544,1.8170023,0.53163433,0.8570228,-1.144062,0.377895,-0.5562877,-0.7101788,0.005206858,0.22924335,-0.43159255,0.28930175,-0.53295904,1.2977,0.04545447,-1.4166981,-1.2560953,-1.3494145,1.1558009,1.0967925,-0.8749931,-0.50671726,-0.34174123,-0.2617798,0.162542,0.18487246,-0.67926866,-0.5198609,-0.07078204,0.16707097,0.8752211,-0.8769999,1.1758661,1.0890626,0.39410508,-0.7447698,-1.2677244,-1.4880623,0.86212665,-0.029444754,-0.1456955,1.6754175,-1.071186,1.3428707,0.009828404,0.8621678,1.8136191,-0.9021376,0.20120215,0.011297802,-0.4716357,-1.3735839,-0.13416837,-0.31298426,-0.12849142,0.44101986,-0.8362348,1.17512,0.4928681,0.7596039,-0.38903204,1.330954,-0.20733292,0.5927772,0.9458665,0.5557013,0.3199414,1.072064,0.16965657,-2.801829,1.6556166,1.7838355,-0.37491062,-0.30622134,-1.0772653,-0.6366437,0.04860564,0.84750843,0.7849698,0.39917445,0.6580016,1.010487,-0.4136194,-0.119160205,0.3098413,0.9081495,1.3824455,0.99617213,-0.33848736,-2.3237479,0.7138501,0.67689484,1.0360998,-0.004701733,-0.05996819,1.0731853,0.77951765,0.16525537,-0.37821588,-0.122136064,-0.29571,-0.038160767,0.7733879,-0.62895185,0.29830188,0.64865786,-0.49616805,-0.33898416,-1.3169137,0.14766993,-3.5806038,0.25169727,-0.011277989,0.842674,-1.1972772,1.1666684,-0.27153584,-1.3066901,1.1529328,0.38903892,0.25094244,0.5978564,-0.66849947,0.2934461,-0.5121688,1.2266992,1.9496235,0.14266814,-1.7877818,-0.44607282,-0.21028017,0.048654895,-0.09291774,0.88189894,0.8566742,-0.40835986,-0.15855014,1.6344848,0.6909659,0.20863624,-0.79130846,-0.08853059,0.23239104,-0.009990308,-0.9518636,-0.7209441,-0.26405767,-1.7277722,-0.7275617,0.07804692,1.0623916,-0.977133,-1.0261419,2.3086267,-0.3870659,-1.8629986,-0.52830917,-1.5726115,-0.5254013,-0.013479012,-1.0574725,-0.5456354,-1.3305987,-1.2483073,-0.40795496,-0.5536826,-0.3731972,-0.1979918,-1.3266159,0.5475189,0.86980367,-0.42750534,0.34487048,0.63428193,-1.2726377,-0.0572146,0.648881,-0.14057906,1.2090133,1.345109,0.79802626,-0.15115431,2.2309487,1.2163857,-0.60100573,-0.30888596,-0.32381383,-0.32338277,-1.9679308,-1.2504529,-0.2185859,-0.69665146,-1.7783307,1.7380776,0.53398865,0.10699897,-0.7231107,-1.2920507,-0.43165922,-0.79488325,1.0944147,0.18407704,-1.3108568,0.68615395,1.6096054,-0.12868258,0.20866053,1.2721386,-0.8478341,1.8400731,0.4062417,0.97227424,-1.0636266,-0.9176038,-1.9276446,1.0644735,-0.55205077,1.1035119,-0.002945033,-1.7599028,-0.035149083,2.0696888,0.50253326,0.6719458,1.2122192,-2.5194619,0.5277862,0.9399294,0.5658207,-1.1962949,0.47180963,1.1449176,1.5272008,0.36863992,-0.09162161,1.2020364,0.072424226,0.9080188,-0.51248986,-0.86356,-1.3859153,-0.3574358,1.7281346,-0.33473846,-0.6550487,0.058902726,0.46366203,-0.9571757,-0.42119977,0.23259568,0.26208785,-0.5257977,-0.1299543,0.86613846,-0.85841465,0.10191514,0.5446536,0.8750437,2.0457308,0.32775036,1.0707372,-0.36228982,-0.8670761,1.2840209,1.2347313,-1.7039276,2.8682334,0.075867504,1.222159,0.9640096,0.2800775,-1.052658,-2.010712,0.45102262,-0.1065028,1.0350935,0.85056925,-0.032938365,-2.7542322,-1.8799189,0.32553652,0.020549776,2.0936308,-0.2698096,1.3333923,-0.664818,-1.2951057,1.1513898,-0.8543355,2.0520356,0.6133588,-0.83370227,0.4626476,-0.62654,-0.15863086,-1.5047039,-0.31864142,-0.7273717,-1.1826804,-2.2495794,-0.4054902,0.62402916,-0.026354128,0.565304,0.37451205,0.6389333,0.19814692,0.7487243,1.9517255,-0.31714162,0.81495625,-0.9982366,-0.79036134,0.7036819,0.29036364,-1.0764232,-1.8976637,0.34885374,0.7396073,-1.40339,-0.5465968,-0.8135932,-0.5231864,1.3909202,0.77256423,-0.6449016,-0.2898821,-0.69531226,0.4415411,-1.7679275,-0.81031775,0.36746392,0.9519686,-1.7199761,-0.6193218,-0.7139508,0.24539866,-0.1815309,-0.8562842,0.3816071,0.4019412,2.2924693,-0.21026687,1.2012905,0.76412076,1.4308738,0.42147934,0.19086544,-1.351717,0.53159076,-0.92699736,-0.000197223,-1.2297925,-0.6993904,1.404945,-0.76492554,0.09859309,0.24202116,-1.541409,-2.325254,0.09425473,0.22334951,-0.7030432,-1.4183413,0.43295813,0.40030038,-0.72122365,2.153244,0.75767523,-0.86762446,0.4841723,-0.5954983,0.35336623,0.34587505,-0.08863541,0.58627135,-0.44129905,1.245605,2.6245818,0.14316395,0.60434884,-0.4091119,0.8156891,-0.6245452,-1.0906674,0.70439523,-1.2692581,1.4007062,-0.34199777,0.7355495,-0.18770868,-0.12362156,0.41801617,0.32602945,1.211649,1.5155668,-0.7101278,0.005268508,-1.0009469,-1.4933267,-0.88060504,0.479835,0.789407,-0.21791165,1.7227126,-0.57906204,-1.79744,-0.58407795,-0.25141934,1.6087183,-0.82787704,1.2444881,1.7662354,1.2919974,0.38567844,-0.15066643,-0.44372424,1.9321861,0.8387151,-1.2551366,0.12863512,0.74522704,-1.1304454,0.1899581,-1.1254507,-0.5308304,0.35286033,0.121320955,-1.3014992,-0.51108307,1.7564441,-0.555649,-0.29686856,-0.68953127,-1.487462,0.42094454,1.4816284,-0.91269225,0.11719551,-0.9413813,-1.1853763,-0.80624765,0.91315264,-0.9468611,1.344021,-0.7690529,0.72165155,1.0848403,1.5388323,0.9695845,-0.00126458
'penyakit',-0.7449406,0.19007973,0.26962343,-0.6318763,-0.8623569,3.291488,-1.6064587,0.5785093,-2.2905834,0.3411164,0.35804787,0.69662267,-1.5073208,1.1498764,0.02063833,-0.67132145,1.072147,-1.0162975,-0.47142002,0.9012845,0.3965392,-0.487674,0.44440863,-0.015560225,-0.24867614,-0.28933287,1.4610034,0.9935712,1.0702213,1.142688,-1.2370983,-1.2712208,0.53960586,-1.2779417,-0.51624596,-2.011007,0.08826217,0.97422916,-1.0033021,0.27674064,-1.0199617,-0.26194736,-1.8671579,-0.84775215,1.7569062,-1.0300068,-1.7539071,-1.3040304,-1.0090696,0.020507127,0.1768039,-2.20461,-0.6137349,-0.7733681,-0.34829947,-0.010620639,-1.4792475,0.023869412,0.17780559,-0.9629125,-0.06806113,2.1905534,2.074038,0.63516843,-1.7972978,1.0590053,0.59967357,-1.6087424,1.4203075,-0.33570695,-0.31501564,-0.39216653,0.92984647,-0.8032984,0.34599575,0.15903981,-0.35592625,1.0595545,-1.0772772,-1.4534422,-1.7739929,-0.48455653,1.2199402,1.5778476,-0.3467441,-0.46868205,-0.21480155,-0.8850542,-0.14655805,-1.5753655,0.3734382,-0.3229781,0.52407926,0.5278418,0.56039804,1.0698756,-0.23842132,0.38876024,1.077494,-0.08450645,0.19235717,-0.46761647,-1.7537152,-1.5456691,1.8088983,2.2079012,0.37575963,-0.0988897,-1.0234048,1.6998771,1.6094155,0.5159376,-1.1423489,-0.38816977,0.69676256,-0.5031156,-0.34646952,-0.12591662,-0.38352406,-0.24817412,-0.41512704,-0.011782388,1.1947447,0.007268145,-2.1015842,0.6223483,0.61152405,-0.28956,-0.21901949,-0.75414896,1.399288,2.278966,1.043144,-1.3723947,-1.2019033,1.1270467,1.1926154,0.1982444,1.5013771,0.5879053,-1.2472166,1.9861856,-0.28817895,-0.47929502,1.7484742,0.7569582,-2.035547,1.6989461,0.56491715,1.3400617,-1.1314853,0.38964733,-0.33731356,-0.7772212,1.0647593,-0.7333226,0.39751768,-0.17368312,0.24919216,-0.51820797,0.48747,-0.1528306,-0.67660755,-1.3393117,-1.4905596,1.2813133,-0.2302814,0.7908867,-0.8742282,1.2954451,0.7580313,-0.8864185,1.2938234,-0.9453766,0.04052911,0.79790837,0.87174755,-1.0448943,0.00155062,-1.1802157,-0.7223677,0.7611752,0.39378873,0.9387972,-1.2726101,0.99542165,-0.59251714,-0.19707413,0.4669721,0.7697355,0.050773565,-1.6609911,-0.24313736,-0.9101111,-0.12688121,-0.5342354,0.3132476,1.2212076,-0.77328396,-1.2958754,-2.284792,-0.01675812,1.564135,0.49576357,1.4375062,-0.016985908,-2.3943775,-0.6528372,-0.3319792,-0.22611426,1.0082675,-0.38985333,0.1715424,-0.78661346,0.77231735,-0.8073275,1.076764,1.1517997,0.9835798,1.0232732,-1.9722623,0.59545857,-0.013444216,-2.0653641,-0.04696094,-1.7648664,-0.105922826,1.2649292,-0.84395933,-0.3912231,-1.9493319,0.2591587,0.04591918,-1.310522,-2.1355493,-0.020533422,-1.7546948,2.0335834,0.025636582,-1.366341,-0.29021105,-1.37292,0.83230186,0.63744515,0.41128156,0.87628603,-2.4680927,0.18097125,0.8965638,0.9777234,0.84861034,-0.16061087,-0.98932767,0.13189456,1.7423207,-0.62229747,0.6993937,2.0075338,0.5565496,-0.07712606,-1.0745059,1.4993805,0.15245594,0.3250166,0.8153851,1.1263,-1.389588,0.72688705,-0.055668693,-0.5281121,-0.94680256,-1.3963519,-1.71673,0.9130187,-2.0305932,0.23957054,0.89338213,0.88793296,-0.29135117,1.616881,-0.37292042,0.060246933,-0.510562,-0.5334657,0.57645494,0.69200486,-0.14575793,-0.41578904,-1.1398888,0.99409026,-0.086956955,0.5485072,-0.53599364,-0.6342407,1.029794,0.78281045,0.31352738,0.32054487,-0.22125058,1.223215,0.33457312,-0.47156706,-0.821721,0.08831481,0.4723728,0.4218054,-1.1558133,-0.27602375,0.93971586,1.6535505,0.5431736,-1.9313246,0.14104702,-0.9296978,1.1712009,1.6487788,-0.6233583,0.30395332,-0.9565749,1.8122697,0.601597,0.8548372,-1.180684,0.37508175,-0.55727994,-0.71409875,0.02641522,0.20251878,-0.42561504,0.25571907,-0.55840117,1.307588,0.058329687,-1.4513243,-1.2344064,-1.3026608,1.1689874,1.107838,-0.8884637,-0.5193396,-0.29368722,-0.28065845,0.1626969,0.1838119,-0.6889537,-0.52190286,-0.10962384,0.1309974,0.8997813,-0.8224688,1.1662731,1.0985695,0.4226835,-0.7601094,-1.2609497,-1.4447236,0.85026836,-0.07626834,-0.12678272,1.7099891,-1.1059886,1.3437797,0.000401534,0.87501144,1.8409628,-0.8925529,0.20911898,0.016587839,-0.47707462,-1.3244241,-0.14967985,-0.33688042,-0.096357904,0.39839387,-0.8763972,1.177205,0.4904612,0.79816145,-0.429286,1.3405819,-0.2116916,0.57050794,0.9397311,0.54452986,0.35451543,1.061905,0.103545286,-2.7791336,1.6474644,1.7625064,-0.41046643,-0.34911165,-1.0750359,-0.66810983,0.020008126,0.8457678,0.75559855,0.34497955,0.6339538,0.99468774,-0.39160916,-0.100629516,0.29586443,0.88317245,1.3993331,1.010683,-0.3084533,-2.316642,0.708216,0.68727046,1.0349828,0.025117273,-0.055263653,1.0645837,0.74604684,0.19979255,-0.3453093,-0.11769884,-0.3449564,0.009247347,0.80682725,-0.6571293,0.2066349,0.65645283,-0.5319932,-0.35743698,-1.2705196,0.09740034,-3.5806446,0.24638458,0.009609842,0.8889362,-1.2647619,1.2017324,-0.29333112,-1.3289322,1.0857729,0.37699655,0.28754905,0.5866559,-0.6354706,0.2936362,-0.5162017,1.188648,1.939148,0.11536896,-1.7757009,-0.47785613,-0.17385031,0.07075882,-0.11435121,0.8122029,0.8523595,-0.44300267,-0.18431325,1.6628784,0.62988204,0.1244449,-0.7976082,-0.07383432,0.21250285,-0.013628426,-0.97444123,-0.66238445,-0.2964076,-1.7489328,-0.69999987,0.12527595,1.0263942,-1.007862,-1.0229326,2.328023,-0.41220713,-1.901157,-0.53331333,-1.6045312,-0.49119982,-0.014523856,-1.0171248,-0.50112826,-1.3019451,-1.2085004,-0.40064916,-0.5369649,-0.3496488,-0.18158264,-1.3164679,0.52630174,0.83718824,-0.44408372,0.40331224,0.6110398,-1.200837,-0.038437184,0.6111309,-0.18504852,1.2103723,1.3191499,0.7707944,-0.17770378,2.2324474,1.2727684,-0.6485105,-0.29511932,-0.33184442,-0.27323708,-1.9445243,-1.2724079,-0.20428668,-0.71696544,-1.8127438,1.7604192,0.51419187,0.14367948,-0.83905846,-1.3435158,-0.4689614,-0.8023533,1.0875536,0.12712914,-1.3324819,0.6854208,1.647787,-0.14318879,0.21027036,1.2264247,-0.7949613,1.8346037,0.44604954,0.97664547,-1.0360624,-0.90042496,-1.9509724,1.1178842,-0.55187446,1.1248845,0.007694768,-1.7808999,-0.023322642,2.087752,0.54057866,0.6792202,1.1826376,-2.4948018,0.5173168,0.894876,0.5345368,-1.2140498,0.4933617,1.0650605,1.4995519,0.3908644,-0.05084685,1.2253004,0.0848588,0.96394426,-0.51774675,-0.85555094,-1.4301933,-0.2829098,1.7190231,-0.3413786,-0.67555666,0.14095837,0.4511565,-0.95907754,-0.4477723,0.2592294,0.23597354,-0.53066474,-0.12265281,0.92139083,-0.8369823,0.0704586,0.53433996,0.88739085,2.0014024,0.33348107,1.0860311,-0.33971265,-0.8855779,1.2464209,1.2133484,-1.7324926,2.8928816,0.08348229,1.2211989,0.94038177,0.23085499,-1.0468723,-2.0717685,0.44781342,-0.10151428,1.0170355,0.84047145,-0.074798584,-2.742514,-1.901878,0.30031165,0.042701602,2.0618935,-0.21359086,1.3475677,-0.6448272,-1.2945865,1.0252843,-0.8375869,2.063441,0.59728676,-0.81412274,0.46540818,-0.64335924,-0.12859246,-1.5112028,-0.372928,-0.7329609,-1.1535972,-2.2722447,-0.4257616,0.594932,-0.06177103,0.58749527,0.34193495,0.5669644,0.18287377,0.7693352,1.9474773,-0.28796265,0.86317253,-1.0124956,-0.81336015,0.7378223,0.28462413,-1.1052631,-1.8840455,0.32364345,0.6612607,-1.4603115,-0.5773842,-0.8317357,-0.5308023,1.3838434,0.72962874,-0.64267206,-0.2905105,-0.7328231,0.43803617,-1.7678283,-0.8321852,0.39940634,0.986628,-1.6731205,-0.5845861,-0.7162456,0.25335738,-0.20785983,-0.86721164,0.3588171,0.43519354,2.3078306,-0.22780533,1.2003831,0.7400983,1.4307963,0.40283465,0.24703147,-1.3536557,0.519499,-0.87252045,0.013010565,-1.2273005,-0.6836602,1.4512583,-0.75947887,0.10889175,0.21997966,-1.5324429,-2.257708,0.11567423,0.22870897,-0.7396422,-1.4486548,0.36383402,0.42473528,-0.7438879,2.1451218,0.7383919,-0.8794958,0.465113,-0.6188746,0.371107,0.33948436,-0.11160333,0.5896868,-0.44385013,1.3022242,2.6556084,0.17387764,0.59760326,-0.3995724,0.76842195,-0.6037379,-1.0647117,0.71335346,-1.2664608,1.4318862,-0.27625373,0.7145274,-0.17840028,-0.132438,0.4342138,0.31749144,1.1987478,1.4814672,-0.68715507,-0.001565258,-1.0219338,-1.5131508,-0.84247583,0.45813766,0.78957415,-0.21871936,1.7629409,-0.56540513,-1.7976736,-0.61495316,-0.28886935,1.6058396,-0.83739287,1.1865033,1.8445977,1.2702903,0.36131176,-0.17246604,-0.41277233,1.9260588,0.84130484,-1.2172593,0.13502215,0.74295825,-1.1765743,0.20280473,-1.1807501,-0.52392715,0.38713273,0.09930578,-1.2938709,-0.46698526,1.7714134,-0.5488089,-0.32513517,-0.6954697,-1.4589778,0.43954372,1.4680835,-0.9382393,0.12992096,-0.9478979,-1.1498076,-0.8579045,0.9381649,-0.93448657,1.3486692,-0.7500656,0.6784806,1.1037818,1.5248488,0.9899892,-0.001244611
